tree
version=v2
num_class=1
num_tree_per_iteration=1
label_index=0
max_feature_idx=32
objective=binary sigmoid:1
feature_names=Column_0 Column_1 Column_2 Column_3 Column_4 Column_5 Column_6 Column_7 Column_8 Column_9 Column_10 Column_11 Column_12 Column_13 Column_14 Column_15 Column_16 Column_17 Column_18 Column_19 Column_20 Column_21 Column_22 Column_23 Column_24 Column_25 Column_26 Column_27 Column_28 Column_29 Column_30 Column_31 Column_32
feature_infos=[967.0333333333333:35000] [1:2] [5.3200000000000003:28.989999999999998] [24.16:1402.1700000000001] [0:7] [0.59999999999999998:7.4000000000000004] [0:10] [1:3] [6000:8121180] [1:2] [28:129] [1:10] [0:44.859999999999999] [66:772] [0:12] [0:1630818] [0:122.09999999999999] [3:116] [1:2] [0:35000] [0:35000] [0:51140.68] [0:51104.32] [0:35000] [0:21503.130000000001] [0:9026.2999999999993] [1:13] [0:14] [27.6648274:64.200841299999993] [-149.49367330000001:-71.382437400000001] [0:91441] [0:4127799] [0:1641300]
tree_sizes=2383 2431 2427 2435 2437 2431 2431 2433 2434 2432 2437 2438 2443 2433 2446 2444 2437 2437 2444 2439 2438 2449 2445 2445 2435 2444 2440 2448 2447 2445 2441 2436 2433 2447 2439 2435 2439 2433 2434 2440 2436 2447 2437 2441 2435 2447 2440 2448 2437 2450 2442 2453 2443 2433 2436 2436 2448 2445 2442 2446 2448 2445 2446 2436 2283 2451 2213 2438 2287 2289 2283 2443 2213 2285 2288 2453 2292 2431 2287 2429 2440 1744 2289 1741 2297 1825 1743 2220 1821 2225 1822 1746 2296 1827 2300 1821 1822 1819 2224 1824 1821 1822 2223 1826 1829 2215 1818 1816 1820 2356 1978 1740 2297 1821 1666 1818 2221 1740 2354 1975 1821 1903 1819 2363 1907 1823 2283 1906 2298 1986 2355 1750 1986 2304 2279 1743 1981 1829 2271 2005 2303 2275 1751 1990 2299 2127 1600 2300 2000 2128 2354 1835 2442 1761 1914 2294 2454 2052 1839 1837 2056 2442 1765 2451 1840 2049 1999 2455 2057 1839 2438 1987 1837 2453 2052 2436 1843 2355 2224 1985 2454 1834 2348 2218 2452 2000 2049 2286 2358 1839 1759 2045 2437 1844 2447 1985 1831 2217 2285 2381 2053 2454 1999 2050 1845 2285 2445 1998 1841 2355 2452 1920 2449 2441 1830 2003 1838 2452 1915 1990 2043 1765 2448 1992 2214 2451 2462 1832 2446 1843 2376 2448 2076 2059 1842 2444 2058 2075 2379 2432 2383 2449 2068 2060 1843 2288 2074 2450 1969 1908 2448 2378 1976 1907 2451 2438 2375 2451 1842 1832 2372 2053 1837 2444 2381 2458 1972 2452 2381 2446 1841 2384 1982 1906 2441 2448 2377 2219 1978 2450 2373 2060 1839 2058 2451 1833 2447 1982 2357 1911 2386 2142 2451 2458 1759 1981 2370 2361 2375 2452 2058 2449 1914 1983 2455 1986 2139 2453 2287 1983 1842 1992 2299 2223 2060 2456 2360 2450 1825 2450 1980 1988 2450 2289 2300 2436 2060 1992 2447 2292 2371 2362 2298 2294 2061 2056 2459 2054 1987 2454 2294 1838 2226 2373 1841 2056 2061 1842 2059 2296 1676 2050 2365 2055 1844 2299 2457 2056 2065 1841 2135 1978 1675 1982 2142 2059 1843 1980 2133 2295 1840 2128 2299 2373 1910 2309 2296 2070 1672 2377 2449 2225 2138 1900 1841 2149 2133 2301 2292 1910 1983 1912 2224 2074 2131 1844 2136 2295 2134 2064 2133 2218 2302 1915 2225 2122 2298 2142 2136 2061 1918 2357 2119 2138 2065 2372 1847 2060 2225 2352 2443 2143 1905 1832 1915 1982 2139 2454 2063 2305 1845 2067 2058 2298 2120 2299 1920 2071 2045 2061 2218 2378 2121 2143 1684 2283 2221 1984 2063 2142 2054 1984 2225 1826 2447 2215 1916 2052 2148 1985 1921 2376 1755 1683 2137 2058 2128 2461 1602 1893 2230 2215 2068 2056 1976 1921 1762 2066 2053 1678 2216 2068 2051 2065 1679 2140 2210 1758 1986 2065 1840 1753 2145 2371 2128 2217 2063 1834 1755 2147

Tree=0
num_leaves=30
num_cat=0
split_feature=4 16 13 10 10 17 5 10 14 8 1 17 31 13 19 32 16 5 10 8 15 16 8 17 23 8 8 15 3
split_gain=748.604 463.09 207.645 199.377 175.379 136.46 100.424 98.027 94.7646 66.8235 59.19 61.9997 42.9017 27.8638 27.5942 21.4028 23.0534 30.9816 8.65654 5.91634 6.36499 4.99515 9.10718 3.54776 3.27397 2.98318 2.89348 0.486966 0.176048
threshold=5.9994837478980498 54.814266120281204 189.018913549492 62.500000000000007 64.500000000000014 20.00625084633533 6.5897711754964288 53.862062374365223 0.99999496345779681 51014.422653584108 1.9971997385625153 22.284849897720523 41168.313513201974 155.50000000000003 1636.2169992339905 41708.937857763056 36.827955344199957 7.1000000000000005 64.500000000000014 98064.88332205468 8710.1790063674089 43.150000000000013 74996.481824636852 38.974736674207016 823.30500000000018 119190.75055378518 179590.26959117645 6258.5000000000009 161.74544244981539
decision_type=2 2 2 2 2 2 2 2 2 2 2 2 2 2 2 2 2 2 2 2 2 2 2 2 2 2 2 2 2
left_child=1 3 13 5 9 12 7 10 -7 -4 11 -2 -1 24 -15 19 17 -17 -5 23 -21 22 -9 -8 -3 -12 -18 -23 -6
right_child=6 2 4 18 28 8 15 21 -10 -11 25 -13 -14 14 -16 16 26 -19 -20 20 -22 27 -24 -25 -26 -27 -28 -29 -30
leaf_value=-0.0023574144486692016 -0.0090675241157556277 -0.012571428571428572 -0.0050097087378640779 -0.0060869565217391312 -0.018000000000000002 0.011572655958162122 -0.019130434782608698 -0.018367346938775505 0.0023308270676691729 0.003076147251638931 -0.018681318681318681 0.0020138888888888888 0.0059574468085106386 -0.017168141592920353 -0.0057725947521865897 -0.0022222222222222222 -0.018473282442748092 -0.018285714285714287 -0.019622641509433963 -0.0082352941176470559 -0.017611940298507461 -0.016 -0.0045161290322580641 -0.012820512820512822 -0.017489539748953977 -0.011111111111111112 -0.012 -0.019298245614035089 -0.02
leaf_count=526 311 70 515 23 20 2677 414 49 532 1983 91 576 470 113 343 153 131 70 106 51 67 20 31 39 239 27 35 171 147
internal_value=0 0.293663 -0.255394 0.728196 0.00825516 0.803329 -1.01968 -0.652038 1.00405 0.140913 -0.364179 -0.187148 0.156627 -1.17386 -0.859649 -1.50833 -1.14653 -0.726457 -1.72093 -1.75482 -1.35593 -1.71956 -1.3 -1.85872 -1.63754 -1.69492 -1.71084 -1.89529 -1.97605
internal_count=10000 7764 3430 4334 2665 4205 2236 1276 3209 2498 1005 887 996 765 456 960 389 223 129 571 118 271 80 453 309 118 166 191 167
shrinkage=0.01


Tree=1
num_leaves=30
num_cat=0
split_feature=4 16 10 13 10 17 5 10 14 8 16 1 17 8 13 19 32 16 5 10 8 15 16 8 17 29 8 32 10
split_gain=733.737 453.971 214.828 196.447 160.879 140.394 98.4394 96.0885 91.4785 66.1193 58.1141 41.9174 41.1254 25.9694 24.3504 24.5935 20.9815 22.5984 30.3692 7.79766 5.8004 6.2397 4.89709 8.9276 3.47836 3.25405 2.83677 0.482785 0.174894
threshold=5.9994837478980498 56.300507886296423 62.500000000000007 189.018913549492 64.500000000000014 20.00625084633533 6.5897711754964288 53.862062374365223 0.99999496345779681 50002.000000000007 46.315962883757727 1.9971997385625153 13.036983309231823 82968.976338112916 155.50000000000003 1636.2169992339905 41708.937857763056 36.827955344199957 7.1000000000000005 64.500000000000014 98064.88332205468 8710.1790063674089 43.150000000000013 74996.481824636852 38.974736674207016 -86.940123262901238 179590.26959117645 11612.48497285431 100.50000000000001
decision_type=2 2 2 2 2 2 2 2 2 2 2 2 2 2 2 2 2 2 2 2 2 2 2 2 2 2 2 2 2
left_child=1 2 5 14 9 12 7 10 -7 -5 11 -2 -1 -12 25 -16 20 18 -18 -4 24 -22 23 -9 -8 -3 -19 -24 -6
right_child=6 3 19 4 28 8 16 22 -10 -11 13 -13 -14 -15 15 -17 17 26 -20 -21 21 -23 27 -25 -26 -27 -28 -29 -30
leaf_value=-0.0048797968801851986 0.0027276218444411658 -0.0139460197197 -0.0071465234496068328 -0.005496156373181205 -0.019804229416501343 0.011271481298060992 -0.018940869044691642 -0.018185212553414015 0.0022978108162542803 0.0028421138788606603 -0.013068331470192379 -0.015546203418215899 0.0039144135044779614 -0.0035414665829895178 -0.017212768705697185 -0.0061577100929497263 -0.0022000026424758927 -0.018290114622615344 -0.018104375586697103 -0.019461340854754122 -0.0081530799692872379 -0.017437177439630816 -0.015824756922103365 -0.0044709907033005361 -0.012692830668126747 -0.018169648932065966 -0.011880429254726758 -0.019108944812618031 -0.017804735981843522
leaf_count=299 486 129 25 476 140 2785 414 49 543 1894 256 56 737 207 107 325 153 131 70 116 51 67 20 31 39 168 35 171 20
internal_value=0 0.290733 0.702074 -0.277871 -0.014292 0.780577 -1.00953 -0.645536 0.980729 0.116743 -0.360543 0.0839666 0.137631 -0.8809 -1.19265 -0.889575 -1.49335 -1.13512 -0.719212 -1.72777 -1.73741 -1.34244 -1.7025 -1.28707 -1.84029 -1.63351 -1.69386 -1.8765 -1.95543
internal_count=10000 7764 4505 3259 2530 4364 2236 1276 3328 2370 1005 542 1036 463 729 432 960 389 223 141 571 118 271 80 453 297 166 191 160
shrinkage=0.01


Tree=2
num_leaves=30
num_cat=0
split_feature=4 16 13 10 10 13 14 5 10 8 1 17 31 13 19 32 16 5 10 8 15 16 8 17 23 2 8 32 12
split_gain=719.218 445.215 199.589 191.544 168.507 132.456 101.462 96.5227 94.2129 64.2358 57.2725 60.4932 36.4261 26.7961 26.5437 20.5775 22.1617 29.9264 8.33714 5.69019 6.1195 4.80356 8.7596 3.41261 3.18911 2.93061 2.60619 0.473667 0.175877
threshold=5.9994837478980498 54.814266120281204 189.018913549492 62.500000000000007 64.500000000000014 180.18985545473731 0.99999496345779681 6.5897711754964288 53.862062374365223 51014.422653584108 1.9971997385625153 22.284849897720523 39591.500000000007 155.50000000000003 1636.2169992339905 41708.937857763056 36.129037326566674 7.1000000000000005 64.500000000000014 98064.88332205468 8710.1790063674089 43.150000000000013 64989.49338352614 38.974736674207016 823.30500000000018 9.4700000000000006 179590.26959117645 11612.48497285431 8.68125002111878
decision_type=2 2 2 2 2 2 2 2 2 2 2 2 2 2 2 2 2 2 2 2 2 2 2 2 2 2 2 2 2
left_child=1 3 13 5 9 12 -7 8 10 -4 11 -2 -1 24 -15 19 17 -17 -5 23 -21 22 -10 -9 -3 -12 -18 -23 -6
right_child=7 2 4 18 28 6 -8 15 21 -11 25 -13 -14 14 -16 16 26 -19 -20 20 -22 27 -24 -25 -26 -27 -28 -29 -30
leaf_value=-0.0046791337109780033 -0.0089365634039784928 -0.012304044649062556 -0.0049138227845787639 -0.005954884776154655 -0.017614945175479197 0.01118526725053222 0.0021859425529408487 -0.018756562432228615 -0.018731679887264915 0.0030140125020882863 -0.01970827245986248 0.0020096098345158257 0.0040681926356662557 -0.016837924306826055 -0.0056601423826654366 -0.0019692105654160802 -0.017883105514440837 -0.017902933889921559 -0.0192391969055247 -0.0080719556295684534 -0.017266786491295753 -0.015669691696637341 -0.0054277517376806047 -0.012567438002005714 -0.017158519563729321 -0.013400213316753966 -0.011762884188829641 -0.018923059457337525 -0.019614360384842065
leaf_count=323 311 70 515 23 20 2808 610 414 44 1983 61 576 464 113 343 149 136 69 106 51 67 20 36 39 239 57 35 171 147
internal_value=0 0.287843 -0.250527 0.71393 0.00794823 0.787567 0.957905 -0.999561 -0.63913 0.137959 -0.35695 -0.182822 0.0478033 -1.15108 -0.842955 -1.47871 -1.12393 -0.701133 -1.687 -1.72044 -1.32922 -1.68587 -1.2744 -1.82236 -1.60587 -1.66611 -1.66302 -1.85824 -1.93749
internal_count=10000 7764 3430 4334 2665 4205 3418 2236 1276 2498 1005 887 787 765 456 960 389 218 129 571 118 271 80 453 309 118 171 191 167
shrinkage=0.01


Tree=3
num_leaves=30
num_cat=0
split_feature=4 16 10 13 10 17 5 10 14 8 16 1 9 8 13 19 32 16 5 10 8 15 16 8 17 29 8 15 17
split_gain=705.039 436.492 206.532 188.798 154.619 136.455 94.6686 92.3962 88.1638 63.5769 56.7476 40.398 40.098 25.4277 23.4054 23.6449 20.1899 21.7502 29.2115 7.48439 5.58537 6.00413 4.71441 8.60883 3.3503 3.1914 2.73347 0.470076 0.173121
threshold=5.9994837478980498 56.300507886296423 62.500000000000007 189.018913549492 64.500000000000014 20.00625084633533 6.5897711754964288 53.862062374365223 0.99999496345779681 50002.000000000007 46.315962883757727 1.9971997385625153 1.9996182232637003 54998.000000000007 155.50000000000003 1636.2169992339905 41708.937857763056 36.827955344199957 7.1000000000000005 64.500000000000014 98064.88332205468 8710.1790063674089 43.150000000000013 74996.481824636852 38.974736674207016 -86.940123262901238 179590.26959117645 6258.5000000000009 12.963334800629049
decision_type=2 2 2 2 2 2 2 2 2 2 2 2 2 2 2 2 2 2 2 2 2 2 2 2 2 2 2 2 2
left_child=1 2 5 14 9 12 7 10 -7 -5 11 -2 -1 -12 25 -16 20 18 -18 -4 24 -22 23 -9 -8 -3 -19 -24 -6
right_child=6 3 19 4 28 8 16 22 -10 -11 13 -13 -14 -15 15 -17 17 26 -20 -21 21 -23 27 -25 -26 -27 -28 -29 -30
leaf_value=0.0032690848708627467 0.0027116058337753831 -0.013652777252988677 -0.0070232223007740211 -0.0053923448614570258 -0.017438446259538422 0.011064644810235962 -0.018577300072319402 -0.01784124952323107 0.0022548485653512509 0.0027842299294200089 -0.016926027956117182 -0.01523229542512752 -0.0066074200558406126 -0.0060131608429586482 -0.016882167831065081 -0.006039951447985417 -0.0021541757713360791 -0.017940340333678109 -0.017755999041222343 -0.019089309602913704 -0.0079918980543322807 -0.017100595164065164 -0.015502502494950084 -0.0043722097989758795 -0.012444261692515911 -0.017836634303956374 -0.011647303630932904 -0.018744120548844688 -0.019428512948860093
leaf_count=831 486 129 25 476 20 2785 414 49 543 1894 113 56 205 350 107 325 153 131 70 116 51 67 20 31 39 168 35 171 140
internal_value=0 0.284991 0.688376 -0.27259 -0.0142104 0.765337 -0.989778 -0.632822 0.962693 0.114207 -0.353402 0.0858595 0.131475 -0.867643 -1.16956 -0.872424 -1.4644 -1.11294 -0.704918 -1.69486 -1.7039 -1.31626 -1.66965 -1.26198 -1.80491 -1.60193 -1.6613 -1.84046 -1.91797
internal_count=10000 7764 4505 3259 2530 4364 2236 1276 3328 2370 1005 542 1036 463 729 432 960 389 223 141 571 118 271 80 453 297 166 191 160
shrinkage=0.01


Tree=4
num_leaves=30
num_cat=0
split_feature=4 16 13 10 10 13 14 5 10 8 16 1 31 13 19 8 32 16 5 10 8 15 16 8 17 29 8 31 15
split_gain=691.188 428.131 191.933 184.083 162.017 129.067 97.8918 92.8764 90.637 61.7503 55.6256 39.608 35.4303 25.803 25.5681 25.118 19.8176 21.3433 28.7974 8.04478 5.48562 5.89332 4.6292 8.45337 3.29122 3.12365 2.51418 0.464432 0.174006
threshold=5.9994837478980498 54.814266120281204 189.018913549492 62.500000000000007 64.500000000000014 180.18985545473731 0.99999496345779681 6.5897711754964288 53.862062374365223 51014.422653584108 46.315962883757727 1.9971997385625153 39591.500000000007 155.50000000000003 1636.2169992339905 82968.976338112916 41708.937857763056 36.129037326566674 7.1000000000000005 64.500000000000014 98064.88332205468 8710.1790063674089 43.150000000000013 64989.49338352614 38.974736674207016 -86.940123262901238 179590.26959117645 230571.9504701533 5656.0000000000009
decision_type=2 2 2 2 2 2 2 2 2 2 2 2 2 2 2 2 2 2 2 2 2 2 2 2 2 2 2 2 2
left_child=1 3 13 5 9 12 -7 8 10 -4 11 -2 -1 25 -15 -12 20 18 -18 -5 24 -22 23 -10 -9 -3 -19 -24 -6
right_child=7 2 4 19 28 6 -8 16 22 -11 15 -13 -14 14 -16 -17 17 26 -20 -21 21 -23 27 -25 -26 -27 -28 -29 -30
leaf_value=-0.0046663040913949676 0.0026844958922366382 -0.013457774654894623 -0.0048200804482847106 -0.0058258562469287812 -0.017259528940958144 0.010982428295809929 0.0021425439915370918 -0.018402874699181584 -0.018384534484342963 0.0029531231886316808 -0.012780550128430341 -0.015086521402974075 0.0039609439750148455 -0.016524601862518872 -0.0055505992768942539 -0.0034101773984274537 -0.0019280022684101394 -0.017546419359824376 -0.01756346396437641 -0.01887715582046931 -0.0079128829028511129 -0.016938443090043522 -0.018747607751233526 -0.0053117852991916951 -0.012323231217502197 -0.017517391503613002 -0.011533627917109653 -0.016343925317936374 -0.019249364914651346
leaf_count=323 486 134 515 23 20 2808 610 414 44 1983 256 56 464 113 343 207 149 136 69 106 51 67 150 36 39 175 35 41 147
internal_value=0 0.282179 -0.245803 0.700073 0.00764388 0.772247 0.940426 -0.980168 -0.626604 0.135064 -0.349896 0.0850045 0.0419838 -1.12916 -0.826802 -0.859062 -1.45041 -1.10217 -0.687252 -1.65476 -1.68777 -1.30355 -1.65384 -1.24981 -1.78791 -1.57566 -1.6315 -1.82316 -1.9011
internal_count=10000 7764 3430 4334 2665 4205 3418 2236 1276 2498 1005 542 787 765 456 463 960 389 218 129 571 118 271 80 453 309 171 191 167
shrinkage=0.01


Tree=5
num_leaves=30
num_cat=0
split_feature=4 16 13 10 10 17 5 10 14 8 1 17 13 31 19 32 16 5 10 8 15 16 8 29 17 2 8 15 21
split_gain=677.658 419.854 211.797 185.605 148.118 109.393 91.1407 88.9312 67.9017 66.643 54.8233 58.735 43.4237 42.0789 32.2392 19.46 20.9591 28.1255 8.418 5.39064 5.78683 4.54785 8.31245 3.63889 3.23517 2.87725 2.63982 0.463413 0.175354
threshold=5.9994837478980498 49.040019903237244 189.018913549492 64.500000000000014 62.500000000000007 20.00625084633533 6.5897711754964288 53.862062374365223 0.99999496345779681 51014.422653584108 1.9971997385625153 22.284849897720523 155.50000000000003 41168.313513201974 1636.2169992339905 41708.937857763056 36.827955344199957 7.1000000000000005 64.500000000000014 98064.88332205468 8710.1790063674089 43.150000000000013 74996.481824636852 -86.171956572057027 38.974736674207016 9.4700000000000006 179590.26959117645 6258.5000000000009 3834.5800000000004
decision_type=2 2 2 2 2 2 2 2 2 2 2 2 2 2 2 2 2 2 2 2 2 2 2 2 2 2 2 2 2
left_child=1 4 12 9 5 13 7 10 -7 -4 11 -2 23 -1 -14 19 17 -17 -6 24 -21 22 -9 -3 -8 -12 -18 -23 -5
right_child=6 2 3 28 18 8 15 21 -10 -11 25 -13 14 -15 -16 16 26 -19 -20 20 -22 27 -24 -25 -26 -27 -28 -29 -30
leaf_value=-0.0020823514355164667 -0.0087667760431102415 -0.013507740406223769 -0.0038934029685169609 -0.017088050837413011 -0.0044426973909451337 0.011673727201345092 -0.018233096332560299 -0.017514531874972438 0.0031551416341055712 0.0034899777190803838 -0.019301348887322801 0.0020202636166173401 -0.015022228478874609 0.006869267657263381 -0.0038046759576002625 -0.0021093258128438781 -0.017608273227752897 -0.017425129863723847 -0.018604713295085808 -0.0078348881190163054 -0.016780171534163949 -0.015180069194965283 -0.0042757730508575682 -0.017578820563904668 -0.012204280309994524 -0.013047823448310332 -0.011421802117807793 -0.018400528142458229 -0.019075262174783982
leaf_count=454 311 163 616 20 21 2303 414 49 447 2374 61 576 138 391 400 153 131 70 84 51 67 20 31 191 39 57 35 171 162
internal_value=0 0.279404 -0.164448 0.0776467 0.76698 0.835338 -0.97073 -0.62048 1.02883 0.196893 -0.346434 -0.176125 -1.02588 0.205956 -0.667933 -1.43672 -1.09159 -0.691049 -1.57676 -1.67203 -1.29108 -1.63841 -1.23787 -1.57038 -1.77135 -1.62802 -1.63027 -1.80632 -1.88569
internal_count=10000 7764 4064 3172 3700 3595 2236 1276 2750 2990 1005 887 892 845 538 960 389 223 105 571 118 271 80 354 453 118 166 191 182
shrinkage=0.01


Tree=6
num_leaves=30
num_cat=0
split_feature=4 16 10 13 10 17 5 10 14 8 16 17 1 8 13 19 32 16 5 10 8 15 16 8 17 23 31 32 12
split_gain=664.435 412.827 195.021 178.117 145.756 130.285 89.461 87.2779 83.6582 60.0252 54.328 39.3237 38.1905 24.657 22.0039 22.3179 19.1161 20.5787 27.7369 7.03298 5.30016 5.68443 4.47004 8.16924 3.18197 3.14179 2.48151 0.460139 0.171177
threshold=5.9994837478980498 56.300507886296423 62.500000000000007 189.018913549492 64.500000000000014 20.00625084633533 6.5897711754964288 53.862062374365223 0.99999496345779681 50002.000000000007 46.315962883757727 13.036983309231823 1.9971997385625153 66566.474951009513 155.50000000000003 1636.2169992339905 41708.937857763056 36.129037326566674 7.1000000000000005 64.500000000000014 98064.88332205468 8710.1790063674089 43.150000000000013 64989.49338352614 38.974736674207016 823.30500000000018 239884.66111714343 11612.48497285431 8.9946357687017304
decision_type=2 2 2 2 2 2 2 2 2 2 2 2 2 2 2 2 2 2 2 2 2 2 2 2 2 2 2 2 2
left_child=1 2 5 14 9 11 7 10 -7 -5 12 -1 -2 -12 25 -16 20 18 -18 -4 24 -22 23 -9 -8 -3 -19 -24 -6
right_child=6 3 19 4 28 8 16 22 -10 -11 13 -13 -14 -15 15 -17 17 26 -20 -21 21 -23 27 -25 -26 -27 -28 -29 -30
leaf_value=-0.0048730920738726501 0.0026683893855130687 -0.011642954020682 -0.0068714873071762106 -0.0052521292764456974 -0.016922617513669212 0.010769184802630697 -0.018067777948135581 -0.018055289027742401 0.0021867813706569735 0.0026933262993682097 -0.014639765641004204 0.0037268737129843178 -0.01479165720504569 -0.0050123419910843752 -0.016428236634184471 -0.005887159121916629 -0.0018876697387044336 -0.018527925801774404 -0.017240802864507954 -0.018571587716555569 -0.0077578916394774426 -0.016625634981457197 -0.015025118247364813 -0.0051986435339645342 -0.012087345059129293 -0.016651088560181163 -0.013699214671089069 -0.018235456836454719 -0.018903844720101023
leaf_count=299 486 64 25 476 20 2785 414 44 543 1894 166 737 56 297 107 325 149 82 69 116 51 67 20 36 39 233 89 171 140
internal_value=0 0.276664 0.669087 -0.265689 -0.0147767 0.743836 -0.961455 -0.614442 0.936775 0.10977 -0.343013 0.12447 0.0868026 -0.846301 -1.13746 -0.849369 -1.42333 -1.0812 -0.673778 -1.6492 -1.65667 -1.27884 -1.62334 -1.22617 -1.75521 -1.55715 -1.60142 -1.78991 -1.86562
internal_count=10000 7764 4505 3259 2530 4364 2236 1276 3328 2370 1005 1036 542 463 729 432 960 389 218 141 571 118 271 80 453 297 171 191 160
shrinkage=0.01


Tree=7
num_leaves=30
num_cat=0
split_feature=4 16 13 10 10 13 5 10 14 8 16 13 1 31 10 8 32 4 16 10 8 15 16 8 29 21 17 31 8
split_gain=651.515 404.897 203.959 178.541 142.439 107.503 87.8327 85.6737 81.4355 64.198 53.2605 41.9724 37.4536 35.6058 31.4184 24.287 18.7859 20.3465 28.1411 8.15333 5.21392 5.5859 4.39571 8.03628 3.56069 3.15306 3.13146 0.458581 0.174364
threshold=5.9994837478980498 49.040019903237244 189.018913549492 64.500000000000014 62.500000000000007 178.01813129185359 6.5897711754964288 53.862062374365223 0.99999496345779681 51014.422653584108 46.315962883757727 155.50000000000003 1.9971997385625153 21920.000000000004 44.999908716645194 54998.000000000007 41708.937857763056 6.9042708809498352 32.614093943389996 64.500000000000014 98064.88332205468 8710.1790063674089 43.150000000000013 74996.481824636852 -86.171956572057027 1776.9100000000001 38.974736674207016 230571.9504701533 34716.673093403253
decision_type=2 2 2 2 2 2 2 2 2 2 2 2 2 2 2 2 2 2 2 2 2 2 2 2 2 2 2 2 2
left_child=1 4 11 9 5 13 7 10 -7 -4 12 24 -2 -1 -13 -12 20 18 -18 -6 26 -22 23 -9 -3 -19 -8 -24 -5
right_child=6 2 3 28 19 8 16 22 -10 -11 15 14 -14 -15 -16 -17 17 25 -20 -21 21 -23 27 -25 -26 -27 -28 -29 -30
leaf_value=-0.007592794666165561 0.0026417271250778057 -0.013261463930955014 -0.0038298997390206787 -0.016756643795094488 -0.0043304906277119339 0.011395328186140523 -0.017906747338386712 -0.017203757449197523 0.0027017057695335545 0.0034172214846231556 -0.016448662841296462 -0.0032171919106350529 -0.014654959592369099 0.0034445127288206499 -0.013557042830720829 -0.0057776483853869999 0.0011348617886987643 -0.010259819091326672 -0.013663321385854549 -0.01827225953060525 -0.0076818721396250088 -0.016474694016450481 -0.01825270964496669 -0.0041816059620012266 -0.017291176099728137 -0.016872592204456815 -0.011972364291922723 -0.015860996138146632 -0.018740312280795604
leaf_count=152 486 163 616 20 21 2411 414 49 525 2374 113 364 56 507 174 350 101 36 105 84 51 67 150 31 191 147 39 41 162
internal_value=0 0.273963 -0.161969 0.0755786 0.75292 0.81993 -0.95234 -0.608492 0.983917 0.192427 -0.339633 -1.0077 0.0859414 0.089798 -0.655802 -0.838022 -1.41022 -1.07099 -0.639686 -1.5475 -1.64167 -1.26684 -1.60863 -1.21467 -1.54347 -1.55713 -1.73948 -1.77393 -1.85223
internal_count=10000 7764 4064 3172 3700 3595 2236 1276 2936 2990 1005 892 542 659 538 463 960 389 206 105 571 118 271 80 354 183 453 191 182
shrinkage=0.01


Tree=8
num_leaves=30
num_cat=0
split_feature=4 16 10 13 10 17 5 10 14 8 1 17 9 13 19 32 4 16 10 8 29 16 8 21 23 17 8 15 10
split_gain=638.883 398.028 187.803 171.392 140.227 126.65 86.2493 84.1165 80.8911 57.7667 52.5973 57.0156 39.1147 21.1337 21.663 18.4717 19.9748 27.6098 6.76265 5.13168 5.51169 4.32447 7.90505 3.09848 3.08885 3.08348 2.83483 0.455038 0.17072
threshold=5.9994837478980498 56.300507886296423 62.500000000000007 189.018913549492 64.500000000000014 20.00625084633533 6.5897711754964288 53.862062374365223 0.99999496345779681 50002.000000000007 1.9971997385625153 22.284849897720523 1.9996182232637003 155.50000000000003 1636.2169992339905 41708.937857763056 6.9042708809498352 32.614093943389996 64.500000000000014 98064.88332205468 -74.412706083820723 43.150000000000013 64989.49338352614 1776.9100000000001 823.30500000000018 38.974736674207016 119190.75055378518 6258.5000000000009 100.50000000000001
decision_type=2 2 2 2 2 2 2 2 2 2 2 2 2 2 2 2 2 2 2 2 2 2 2 2 2 2 2 2 2
left_child=1 2 5 13 9 12 7 10 -7 -5 11 -2 -1 24 -15 19 17 -17 -4 25 -21 22 -9 -18 -3 -8 -12 -23 -6
right_child=6 3 18 4 28 8 15 21 -10 -11 26 -13 -14 14 -16 16 23 -19 -20 20 -22 27 -24 -25 -26 -27 -28 -29 -30
leaf_value=0.0031243517024507096 -0.0086001915497403766 -0.011390168135596715 -0.0067732492771958074 -0.0051621139962556564 -0.018578308833833219 0.01058273862605308 -0.017749839912643336 -0.017742592030941261 0.0021428146272953388 0.0026329668055717894 -0.017619963054650297 0.0020298386095906574 -0.0066313951001857052 -0.016171995670541634 -0.0057801696719855288 0.001123504196976214 -0.01016208010539194 -0.013537022556152731 -0.018249723548089153 -0.014738053971475274 -0.0039834421151524121 -0.014722659575847768 -0.0050882205126909228 -0.016719216516176354 -0.016359592713445649 -0.011859277029146536 -0.010231335531722088 -0.017918340553306832 -0.016597336783990821
leaf_count=831 311 64 25 476 140 2785 414 44 543 1894 91 576 205 107 325 101 36 105 116 94 24 20 36 147 233 39 27 171 20
internal_value=0 0.271293 0.656739 -0.261345 -0.0152637 0.730056 -0.943374 -0.602628 0.920378 0.106766 -0.336296 -0.169567 0.11938 -1.11703 -0.834709 -1.39736 -1.06091 -0.633534 -1.62061 -1.62703 -1.25505 -1.59427 -1.2034 -1.54284 -1.52879 -1.72413 -1.5928 -1.75834 -1.83306
internal_count=10000 7764 4505 3259 2530 4364 2236 1276 3328 2370 1005 887 1036 729 432 960 389 206 141 571 118 271 80 183 297 453 118 191 160
shrinkage=0.01


Tree=9
num_leaves=30
num_cat=0
split_feature=4 16 13 10 10 13 5 10 14 8 16 13 1 31 10 8 32 16 5 8 15 16 8 29 17 8 31 15 13
split_gain=626.53 390.535 196.498 171.848 137.069 103.411 84.7137 82.6056 80.7094 61.837 52.0262 40.6199 36.1293 34.1209 30.5134 23.9031 18.1675 19.701 26.3864 5.05558 5.49898 4.25638 7.77839 3.4871 3.03789 2.59931 0.452783 0.172377 0.153484
threshold=5.9994837478980498 49.040019903237244 189.018913549492 64.500000000000014 64.500000000000014 180.18985545473731 6.5897711754964288 53.862062374365223 0.99999496345779681 51014.422653584108 46.315962883757727 155.50000000000003 1.9971997385625153 21920.000000000004 44.999908716645194 82968.976338112916 41708.937857763056 36.827955344199957 7.1000000000000005 98064.88332205468 8710.1790063674089 43.150000000000013 74996.481824636852 -86.171956572057027 38.974736674207016 179590.26959117645 230571.9504701533 5656.0000000000009 187.08566245650459
decision_type=2 2 2 2 2 2 2 2 2 2 2 2 2 2 2 2 2 2 2 2 2 2 2 2 2 2 2 2 2
left_child=1 4 11 9 5 13 7 10 -7 -4 12 23 -2 -1 -13 -12 19 18 -18 24 -21 22 -9 -3 -8 -19 -23 -5 -6
right_child=6 2 3 27 28 8 16 21 -10 -11 15 14 -14 -15 -16 -17 17 25 -20 20 -22 26 -24 -25 -26 -27 -28 -29 -30
leaf_value=-0.0070066746819381085 0.0026255406802189931 -0.013026098935540492 -0.003766929909940763 -0.016447577013800632 -0.016422267715035931 0.011190358784130305 -0.017596896773635823 -0.016907750878775735 0.0024958062467907967 0.0033462280396141641 -0.012348763979544286 -0.0031483188572188499 -0.014377356080716719 0.0034879217649328503 -0.013342621050848512 -0.0032037312941885451 -0.0019818141706431178 -0.01704315393274633 -0.016837464916304997 -0.0074859351604678551 -0.016215427600296192 -0.017942403816827924 -0.0040896390902142119 -0.017017324026951379 -0.011748029012306019 -0.01089604953111796 -0.015562919575506901 -0.018422527651256456 -0.018436750503509149
leaf_count=161 486 163 616 20 20 2396 414 49 520 2374 256 364 56 539 174 207 153 131 70 51 67 150 31 191 39 35 41 162 64
internal_value=0 0.26866 -0.159542 0.0735891 0.739229 0.797786 -0.934549 -0.59684 0.963725 0.18809 -0.332993 -0.99015 0.0876453 0.107306 -0.643998 -0.825717 -1.38475 -1.05101 -0.662649 -1.61269 -1.24337 -1.58023 -1.19233 -1.5178 -1.70916 -1.57444 -1.74315 -1.82054 -1.79571
internal_count=10000 7764 4064 3172 3700 3616 2236 1276 2916 2990 1005 892 542 700 538 463 960 389 223 571 118 271 80 354 453 166 191 182 84
shrinkage=0.01


Tree=10
num_leaves=30
num_cat=0
split_feature=4 16 10 13 10 17 5 10 14 16 13 9 1 8 13 19 32 4 16 31 10 8 29 16 8 23 21 17 32
split_gain=614.46 383.812 181.217 164.972 135.692 123.161 83.2276 81.1371 78.2349 51.0102 48.9081 38.2578 35.4407 23.5668 20.3229 21.0439 17.8729 19.4358 26.6787 16.8505 6.39181 4.98091 5.41431 4.19104 7.65887 3.04058 3.03583 2.99456 0.45372
threshold=5.9994837478980498 56.300507886296423 62.500000000000007 189.018913549492 59.953228466955757 20.00625084633533 6.5897711754964288 53.862062374365223 0.99999496345779681 46.315962883757727 261.11686978065063 1.9996182232637003 1.9971997385625153 54998.000000000007 155.50000000000003 1636.2169992339905 41708.937857763056 6.9042708809498352 32.614093943389996 277453.50000000006 64.500000000000014 98064.88332205468 -74.412706083820723 43.150000000000013 64989.49338352614 823.30500000000018 1776.9100000000001 38.974736674207016 11612.48497285431
decision_type=2 2 2 2 2 2 2 2 2 2 2 2 2 2 2 2 2 2 2 2 2 2 2 2 2 2 2 2 2
left_child=1 2 5 14 10 11 7 9 -7 12 -5 -1 -2 -11 25 -16 21 18 -18 -6 -4 27 -23 24 -9 -3 -19 -8 -25
right_child=6 3 20 4 19 8 16 23 -10 13 -12 -13 -14 -15 15 -17 17 26 -20 -21 -22 22 -24 28 -26 -27 -28 -29 -30
leaf_value=0.0030542067050859118 0.002599321419985806 -0.011145781774396957 -0.0067841940975198909 -0.0019515953928809038 -0.015813832656285807 0.010402034058947549 -0.017447769016878788 -0.017445223722353676 0.0021010369129991903 -0.016132716310166224 0.0039583871358570225 -0.0065946911831230902 -0.014248809376953111 -0.0056139497299001516 -0.015925755898163384 -0.0056755079888620797 0.0011320937615468239 -0.0099567670692269489 -0.013285930140413913 0.0018260764838880887 -0.01794445197970777 -0.014490563606998342 -0.0038253781445430823 -0.014423090302470687 -0.0049804150999759591 -0.016080743901723035 -0.016452211593560317 -0.011638564795921697 -0.017618269460849292
leaf_count=831 486 64 25 994 228 2785 414 44 543 113 1284 205 56 350 107 325 101 36 105 24 116 94 24 20 36 233 147 39 171
internal_value=0 0.266058 0.644706 -0.257099 -0.01573 0.716683 -0.925885 -0.59114 0.90448 -0.329735 0.137964 0.114469 0.0867787 -0.817725 -1.09724 -0.820421 -1.37243 -1.04132 -0.619649 -1.41275 -1.59522 -1.59871 -1.23199 -1.56651 -1.18146 -1.5016 -1.51728 -1.69455 -1.72833
internal_count=10000 7764 4505 3259 2530 4364 2236 1276 3328 1005 2278 1036 542 463 729 432 960 389 206 252 141 571 118 271 80 297 183 453 191
shrinkage=0.01


Tree=11
num_leaves=30
num_cat=0
split_feature=4 16 13 10 10 13 5 10 14 8 1 17 13 31 19 32 16 5 10 8 15 16 8 29 17 2 8 15 12
split_gain=602.652 376.744 189.358 165.891 132.13 102.424 81.7788 79.71 76.0384 60.3313 50.4613 55.3902 39.3481 33.7873 29.7207 17.5907 19.1208 25.5828 7.54144 4.91187 5.41773 4.12854 7.53707 3.4198 2.95335 2.82769 2.56762 0.44828 0.172771
threshold=5.9994837478980498 49.040019903237244 189.018913549492 64.500000000000014 62.500000000000007 178.01813129185359 6.5897711754964288 53.862062374365223 0.99999496345779681 51014.422653584108 1.9971997385625153 22.284849897720523 155.50000000000003 21920.000000000004 1636.2169992339905 41708.937857763056 36.827955344199957 7.1000000000000005 64.500000000000014 98064.88332205468 8710.1790063674089 43.150000000000013 74996.481824636852 -86.171956572057027 38.974736674207016 9.4700000000000006 179590.26959117645 6258.5000000000009 8.68125002111878
decision_type=2 2 2 2 2 2 2 2 2 2 2 2 2 2 2 2 2 2 2 2 2 2 2 2 2 2 2 2 2
left_child=1 4 12 9 5 13 7 10 -7 -4 11 -2 23 -1 -14 19 17 -17 -6 24 -21 22 -9 -3 -8 -12 -18 -23 -5
right_child=6 2 3 28 18 8 15 21 -10 -11 25 -13 14 -15 -16 16 26 -19 -20 20 -22 27 -24 -25 -26 -27 -28 -29 -30
leaf_value=-0.0074955914376805613 -0.0084418321127717987 -0.012798978321859911 -0.0037389833988688342 -0.016162215535964777 -0.0042401001290354361 0.011012585583295797 -0.017302316119617182 -0.016625445889021123 0.0026102083377505165 0.0032874518579379098 -0.018592058810208707 0.0020384175408338649 -0.014357246479812137 0.0032576509628164628 -0.0035677886389403625 -0.0019214685586161832 -0.016774946742694866 -0.016563331388134588 -0.017657979220439501 -0.0072955295235871756 -0.015966800916803817 -0.014293930415413696 -0.0039998074973365038 -0.016755580952440976 -0.011530832064897793 -0.012379513174204604 -0.01065985214593115 -0.017472018601866285 -0.018142476535255251
leaf_count=152 311 163 616 20 21 2411 414 49 525 2374 61 576 138 507 400 153 131 70 84 51 67 20 31 191 39 57 35 171 162
internal_value=0 0.263487 -0.157161 0.0716487 0.725894 0.790367 -0.917354 -0.585519 0.950632 0.183995 -0.326516 -0.163329 -0.973122 0.0775869 -0.632473 -1.36033 -1.03174 -0.649119 -1.49531 -1.58501 -1.22072 -1.55309 -1.17078 -1.49315 -1.68029 -1.55894 -1.54819 -1.71387 -1.79248
internal_count=10000 7764 4064 3172 3700 3595 2236 1276 2936 2990 1005 887 892 659 538 960 389 223 105 571 118 271 80 354 453 118 166 191 182
shrinkage=0.01


Tree=12
num_leaves=30
num_cat=0
split_feature=4 16 10 13 17 10 5 10 14 13 10 16 17 31 1 8 32 4 16 31 10 2 13 16 8 23 21 13 31
split_gain=591.106 370.187 174.609 159.88 119.794 97.7956 80.3807 78.3244 75.7017 51.1905 53.1768 49.8366 37.41 36.3216 34.1994 23.1692 17.3171 18.9261 25.7904 14.0032 6.16669 4.88764 6.87457 4.06855 7.42903 2.99656 2.97796 2.23436 0.449241
threshold=5.9994837478980498 56.300507886296423 62.500000000000007 238.03275290039829 20.00625084633533 59.953228466955757 6.5897711754964288 53.862062374365223 0.99999496345779681 155.50000000000003 55.88319866925486 46.315962883757727 13.036983309231823 41168.313513201974 1.9971997385625153 82968.976338112916 41708.937857763056 6.9042708809498352 32.614093943389996 252880.00000000003 64.500000000000014 7.9050000000000011 271.96373121005155 43.150000000000013 64989.49338352614 823.30500000000018 1776.9100000000001 322.33930544641868 230571.9504701533
decision_type=2 2 2 2 2 2 2 2 2 2 2 2 2 2 2 2 2 2 2 2 2 2 2 2 2 2 2 2 2
left_child=1 2 4 9 12 13 7 11 -6 25 -11 14 -1 -5 -2 -13 21 18 -18 -7 -4 27 -23 24 -9 -3 -19 -8 -25
right_child=6 3 20 5 8 19 16 23 -10 10 -12 15 -14 -15 -16 -17 17 26 -20 -21 -22 22 -24 28 -26 -27 -28 -29 -30
leaf_value=-0.0048715422746886247 0.0025830803181576887 -0.010909254699375209 -0.0066876409076136777 -0.003233546476441705 0.010225814850885862 -0.015865160208352616 -0.017372368227903924 -0.017162082700052844 0.0020593665750422022 -0.0037097069788109504 -0.01535404758074429 -0.012090963532429085 0.0035184765339379932 0.0045606632941326145 -0.013986361031733953 -0.0030836195046351988 0.0011399947896949614 -0.0097575632669720767 -0.013043886168257746 0.0020833225082286942 -0.017654254894598688 -0.015976126165093682 -0.0060038231325393963 -0.017507855439667121 -0.0048751322754393249 -0.015813680718531856 -0.016196571266678644 -0.013864610730168512 -0.015132063001489855
leaf_count=299 486 64 25 294 2785 136 362 44 543 1041 186 256 737 1285 56 207 101 36 105 20 116 71 46 150 36 233 147 92 41
internal_value=0 0.260951 0.632996 -0.252958 0.703598 0.16219 -0.908958 -0.579963 0.888944 -0.726617 -0.546621 -0.323326 0.109659 0.310953 0.0883984 -0.805858 -1.34849 -1.02236 -0.606156 -1.35501 -1.56911 -1.57163 -1.20542 -1.53997 -1.16029 -1.47548 -1.49273 -1.6661 -1.69976
internal_count=10000 7764 4505 3259 4364 1735 2236 1276 3328 1524 1227 1005 1036 1579 542 463 960 389 206 156 141 571 117 271 80 297 183 454 191
shrinkage=0.01


Tree=13
num_leaves=30
num_cat=0
split_feature=4 16 13 10 10 13 5 10 14 31 1 32 13 31 10 32 4 16 10 32 8 15 16 8 29 5 17 2 32
split_gain=579.807 363.5 183.078 160.233 127.247 98.3838 79.0093 76.9752 73.6594 59.143 48.9646 54.5176 37.9516 33.6356 29.0997 17.0518 18.6001 25.3173 13.0225 5.31156 4.85001 5.34733 4.01103 7.31202 3.36032 2.94294 2.91336 2.79033 0.447437
threshold=5.9994837478980498 49.040019903237244 189.018913549492 64.500000000000014 60.251789280635244 178.01813129185359 6.5897711754964288 53.862062374365223 0.99999496345779681 75964.000000000015 1.9971997385625153 21514.549076783715 155.50000000000003 21920.000000000004 44.999908716645194 41708.937857763056 6.9042708809498352 32.614093943389996 64.500000000000014 31108.976703973101 98064.88332205468 8710.1790063674089 43.150000000000013 64989.49338352614 -86.171956572057027 7.1000000000000005 38.974736674207016 9.4700000000000006 11612.48497285431
decision_type=2 2 2 2 2 2 2 2 2 2 2 2 2 2 2 2 2 2 2 2 2 2 2 2 2 2 2 2 2
left_child=1 4 12 9 5 13 7 10 -7 -4 11 -2 24 -1 -14 20 17 -17 19 -6 26 -22 23 -9 -3 -18 -8 -12 -24
right_child=6 2 3 -5 18 8 15 22 -10 -11 27 -13 14 -15 -16 16 25 -19 -20 -21 21 -23 28 -25 -26 -27 -28 -29 -30
leaf_value=-0.0074278961403116493 -0.0086100406914684288 -0.012577560452612283 -0.0020837408085780129 -0.017655348902511622 -0.010613411595532845 0.010890762700193759 -0.017031013791110029 -0.01702282749559807 0.0026082974278376692 0.0038403761231098105 -0.018343571306463632 0.0019132386916383948 -0.0030203075929463741 0.0033096471620535912 -0.012986072382040543 0.0011285855071718883 -0.011749102412720045 -0.012928604353830704 -0.01737368456446883 0.00380255775354862 -0.0070807123233659012 -0.015703975935562428 -0.014013165816123519 -0.0048272219921365392 -0.016504358314343756 -0.016927668001792455 -0.011292822791259809 -0.01216555106823807 -0.017193515029162422
leaf_count=152 296 163 1028 182 21 2395 414 44 524 1962 61 591 364 504 174 101 75 105 84 20 51 67 20 36 191 108 39 57 171
internal_value=0 0.258442 -0.154827 0.0701118 0.712909 0.782138 -0.900689 -0.574494 0.939874 0.180351 -0.320182 -0.159546 -0.957776 0.081974 -0.623312 -1.33682 -1.0131 -0.600452 -1.28118 -0.358158 -1.55848 -1.19614 -1.52713 -1.14998 -1.46931 -1.4798 -1.65337 -1.53565 -1.68598
internal_count=10000 7764 4064 3172 3700 3575 2236 1276 2919 2990 1005 887 892 656 538 960 389 206 125 41 571 118 271 80 354 183 453 118 191
shrinkage=0.01


Tree=14
num_leaves=30
num_cat=0
split_feature=4 16 10 13 13 10 14 5 10 13 10 16 31 1 31 8 8 16 2 31 17 13 10 16 8 10 23 32 31
split_gain=568.751 357.109 168.301 154.835 116.696 94.595 83.6206 77.6903 75.6659 49.148 51.5324 48.6286 35.1322 32.9974 32.1696 22.7905 16.85 16.9962 18.0563 13.5926 10.7036 9.34951 5.95682 3.95585 7.21142 3.09753 2.95641 2.41721 0.444769
threshold=5.9994837478980498 56.300507886296423 62.500000000000007 238.03275290039829 179.09900209593405 59.953228466955757 0.99999496345779681 6.5897711754964288 53.862062374365223 155.50000000000003 55.88319866925486 46.315962883757727 41168.313513201974 1.9971997385625153 39591.500000000007 54998.000000000007 97060.863313855501 37.145431093842589 6.6500000000000012 252880.00000000003 38.974736674207016 272.06166560305172 64.500000000000014 43.150000000000013 74996.481824636852 46.839619755545918 823.30500000000018 42626.619800776883 230571.9504701533
decision_type=2 2 2 2 2 2 2 2 2 2 2 2 2 2 2 2 2 2 2 2 2 2 2 2 2 2 2 2 2
left_child=1 2 4 9 14 12 -6 8 11 26 -11 13 -5 -2 -1 -13 20 18 -18 -7 27 -22 -4 24 -10 -19 -3 -9 -25
right_child=7 3 22 5 6 19 -8 16 23 10 -12 15 -14 -15 -16 -17 17 25 -20 -21 21 -23 -24 28 -26 -27 -28 -29 -30
leaf_value=-0.0049212181117268246 0.002563536836636461 -0.010680104159157853 -0.0065950247412890628 -0.0031804239863595764 0.0098663025273250105 -0.01563243207326059 0.001844965173760475 -0.016906009102276586 -0.016228363949377343 -0.0036631593605963332 -0.015136833416832099 -0.015774843280046965 0.0044852410845012186 -0.013733658454821806 0.0033111746365543028 -0.0054190098689565072 -0.015991107973790018 -0.011999978969781156 0.00027614710824624728 0.0020566938124645883 -0.016283571273023809 -0.0030296331832657454 -0.017378746349211646 -0.017234092639496244 -0.0038643672922762419 -0.018098384542200214 -0.015557622736331871 -0.01389286169864652 -0.014865754470497988
leaf_count=323 486 64 25 294 2947 136 632 417 49 1041 186 113 1285 56 462 350 38 126 100 20 37 51 116 150 31 46 233 145 41
internal_value=0 0.255965 0.621588 -0.248905 0.690845 0.159637 0.844471 -0.89254 -0.569073 -0.715324 -0.539094 -0.317057 0.305792 0.0896717 -0.00780283 -0.79392 -1.32542 -0.940423 -0.417218 -1.33458 -1.50987 -0.859387 -1.54422 -1.51457 -1.13984 -1.36308 -1.45038 -1.61243 -1.67253
internal_count=10000 7764 4505 3259 4364 1735 3579 2236 1276 1524 1227 1005 1579 542 785 463 960 310 138 156 650 88 141 271 80 172 297 562 191
shrinkage=0.01


Tree=15
num_leaves=30
num_cat=0
split_feature=4 16 13 10 10 13 5 10 14 8 17 1 13 31 19 32 16 5 13 10 32 2 13 16 8 29 8 13 15
split_gain=557.933 350.893 176.841 154.803 122.686 94.7552 76.3889 74.3887 71.0389 58.2329 48.0598 47.8319 36.6466 32.5733 28.4896 16.6318 18.2354 24.2307 14.8704 12.5529 5.19969 4.80513 6.7561 3.90281 7.10417 3.31083 2.54775 2.17373 0.445367
threshold=5.9994837478980498 49.040019903237244 189.018913549492 64.500000000000014 60.251789280635244 178.01813129185359 6.5897711754964288 53.862062374365223 0.99999496345779681 70017.101815715636 22.284849897720523 1.9971997385625153 155.50000000000003 21920.000000000004 1636.2169992339905 41708.937857763056 36.827955344199957 7.1000000000000005 165.05396500943689 64.500000000000014 31108.976703973101 7.9050000000000011 271.96373121005155 43.150000000000013 64989.49338352614 -86.171956572057027 179590.26959117645 322.33930544641868 6258.5000000000009
decision_type=2 2 2 2 2 2 2 2 2 2 2 2 2 2 2 2 2 2 2 2 2 2 2 2 2 2 2 2 2
left_child=1 4 12 9 5 13 7 10 -7 -4 18 -12 25 -1 -14 21 17 -17 -2 20 -6 27 -23 24 -9 -3 -18 -8 -25
right_child=6 2 3 -5 19 8 15 23 -10 -11 11 -13 14 -15 -16 16 26 -19 -20 -21 -22 22 -24 28 -26 -27 -28 -29 -30
leaf_value=-0.0073056284555331674 -0.017324760460697829 -0.012358659409928209 -0.0014419267695111979 -0.017398510373214379 -0.010508568922540118 0.010699415915432857 -0.016979258675959091 -0.016759254137648193 0.0025643056640927966 0.0041965790410011371 0.0020521627053374041 -0.014619442971821075 -0.014020522964567112 0.0032619115637063018 -0.0034421531487970163 -0.001765738179374152 -0.016296918938089721 -0.016050030895053687 -0.0070526948960795838 -0.017103166895977399 0.0037572367509387796 -0.015596497274787036 -0.005689697289945477 -0.013748724588374686 -0.0047255188592722729 -0.01626181769335637 -0.010191375593871966 -0.013511008151053286 -0.01692757286379595
leaf_count=152 71 163 1289 182 21 2395 362 44 524 1701 576 79 138 504 400 153 131 70 279 84 20 71 46 20 36 191 35 92 171
internal_value=0 0.253517 -0.152606 0.0684154 0.700325 0.768269 -0.884516 -0.563746 0.923227 0.176575 -0.313984 0.00584243 -0.942459 0.0811365 -0.613901 -1.31416 -0.994231 -0.620459 -0.913509 -1.26081 -0.355046 -1.53357 -1.16967 -1.50227 -1.12988 -1.44606 -1.50039 -1.62753 -1.65939
internal_count=10000 7764 4064 3172 3700 3575 2236 1276 2919 2990 1005 655 892 656 538 960 389 223 350 125 41 571 117 271 80 354 166 454 191
shrinkage=0.01


Tree=16
num_leaves=30
num_cat=0
split_feature=4 16 10 13 17 14 5 10 10 10 13 16 8 9 1 8 8 16 2 17 13 31 16 8 10 32 32 16 13
split_gain=547.348 344.869 174.022 155.555 132.16 79.0291 75.1354 73.1478 69.6117 56.622 52.4023 47.5281 43.1422 42.947 31.9243 22.3472 16.5425 16.565 17.5487 10.4948 9.13329 8.10653 3.85193 7.00509 3.0522 2.3432 0.442496 0.179567 0.0012121
threshold=5.9994837478980498 59.331673309991196 64.500000000000014 262.01942669912995 20.00625084633533 0.99999496345779681 6.5897711754964288 53.862062374365223 64.500000000000014 55.88319866925486 155.50000000000003 46.315962883757727 67509.099234028094 1.9996182232637003 1.9971997385625153 66566.474951009513 97060.863313855501 37.145431093842589 6.6500000000000012 38.974736674207016 272.06166560305172 260500.00000000003 43.150000000000013 74996.481824636852 46.839619755545918 42626.619800776883 11612.48497285431 19.589855021022675 186.01993312517274
decision_type=2 2 2 2 2 2 2 2 2 2 2 2 2 2 2 2 2 2 2 2 2 2 2 2 2 2 2 2 2
left_child=1 2 4 9 13 -6 7 11 12 10 -3 14 -5 -1 -2 -13 19 18 -18 25 -21 -11 23 -9 -19 -8 -24 -4 -29
right_child=6 3 27 8 5 -7 16 22 -10 21 -12 15 -14 -15 -16 -17 17 24 -20 20 -22 -23 26 -25 -26 -27 -28 28 -30
leaf_value=0.0024307826240979077 0.0025493404472270009 -0.014217521529955555 -0.015418297380472342 -0.002291019984650481 0.0096425875534096473 0.0016049900699131809 -0.016653319228005514 -0.015976249845377981 -0.017496638000693284 -0.016269833625307168 -0.0036108377751040317 -0.013727021185046985 0.0060163141666208621 -0.0072762850838806086 -0.013503082417122541 -0.0045420360361864802 -0.015724920483338848 -0.01177383556392678 0.00033394468965146639 -0.01603148104084624 -0.0029178427139665538 -0.0029909379709819519 -0.013626903858497288 -0.0037796158108245712 -0.017838124980987566 -0.013682420101080619 -0.01679853518193852 -0.017619644462320793 -0.017462074285170236
leaf_count=901 486 225 20 358 2990 586 417 49 68 254 1171 166 831 229 56 297 38 126 100 37 51 20 20 31 46 145 171 26 85
internal_value=0 0.251101 0.579892 -0.291582 0.642808 0.831934 -0.876609 -0.55847 0.239959 -0.692903 -0.530045 -0.310933 0.351487 0.0463244 0.0912 -0.782607 -1.30315 -0.921318 -0.404694 -1.4863 -0.841705 -1.52967 -1.49022 -1.12007 -1.33946 -1.58815 -1.64655 -1.71815 -1.74991
internal_count=10000 7764 4837 2927 4706 3576 2236 1276 1257 1670 1396 1005 1189 1130 542 463 960 310 138 650 88 274 271 80 172 562 191 131 111
shrinkage=0.01


Tree=17
num_leaves=30
num_cat=0
split_feature=4 16 13 10 10 17 13 10 5 10 1 17 14 31 8 8 16 2 10 17 13 10 16 9 16 31 2 32 3
split_gain=536.988 339.535 197.334 128.831 98.0719 79.6699 76.7348 75.1145 73.9031 71.9885 47.3258 52.2755 47.131 46.504 19.2541 16.2957 16.2882 17.2412 16.1364 10.3497 8.9777 8.1081 7.47074 5.96946 9.74175 3.04818 2.83436 2.32887 0.141743
threshold=5.9994837478980498 43.711715900517582 238.03275290039829 59.953228466955757 60.251789280635244 13.036983309231823 155.50000000000003 55.88319866925486 6.5897711754964288 51.991224151956537 1.9971997385625153 22.284849897720523 0.99999496345779681 39591.500000000007 29990.000000000004 97060.863313855501 37.145431093842589 6.6500000000000012 64.500000000000014 38.974736674207016 272.06166560305172 64.500000000000014 48.532829810483001 1.9996182232637003 43.416002359806548 239884.66111714343 9.4700000000000006 42626.619800776883 419.51815187988484
decision_type=2 2 2 2 2 2 2 2 2 2 2 2 2 2 2 2 2 2 2 2 2 2 2 2 2 2 2 2 2
left_child=1 4 6 13 5 14 22 -8 9 10 11 -2 -7 -4 -1 19 17 -17 -5 27 -21 -6 -3 24 -11 -18 -12 -10 -23
right_child=8 2 3 18 21 12 7 -9 15 23 26 -13 -14 -15 -16 16 25 -19 -20 20 -22 28 -24 -25 -26 -27 -28 -29 -30
leaf_value=-0.018416647452632544 -0.0079797325135553612 -0.0059390732795355861 -0.0018101546862224181 -0.0054488976629793844 -0.0040367420549514837 0.010390020925705165 -0.0018447959642452758 -0.013691941673528139 -0.016526770377536061 -0.0049154513555912435 -0.017925876949992727 0.0023623723291996942 0.0034099485417035682 0.005592381442558878 -0.0012446132249741163 -0.015598215289630115 -0.016164311297253219 0.00033060084187468098 -0.017028600583517964 -0.015897528766091028 -0.0028892677948330905 -0.017338079672730759 -0.014205374714413981 -0.017693153027231366 -0.015006593455247604 -0.010782602377737574 -0.011655466988110501 -0.013562666859992767 -0.015282993673068488
leaf_count=31 303 50 414 80 30 2301 1527 252 417 56 61 555 466 1900 167 38 80 100 124 37 51 44 358 119 126 92 56 145 20
internal_value=0 0.248708 -0.0890281 0.29304 0.769091 0.83267 -0.52989 -0.350895 -0.868824 -0.553282 -0.290433 -0.128351 0.920819 0.426702 -0.393259 -1.2923 -0.913155 -0.400861 -1.24268 -1.4743 -0.833971 -1.2596 -1.31805 -1.41746 -1.18793 -1.32826 -1.49198 -1.5756 -1.66959
internal_count=10000 7764 4705 2518 3059 2965 2187 1779 2236 1276 975 858 2767 2314 198 960 310 138 204 650 88 94 408 301 182 172 117 562 64
shrinkage=0.01


Tree=18
num_leaves=30
num_cat=0
split_feature=4 16 10 13 17 14 5 10 10 10 13 16 8 9 8 13 32 4 16 31 2 13 16 8 21 13 31 16 13
split_gain=526.838 333.751 167.964 150.227 128.363 76.7434 72.7106 70.8167 67.1117 54.7449 50.3787 46.7295 42.0773 42.0038 30.9351 25.5002 16.0735 17.9428 23.9933 7.96279 4.73013 6.62628 3.74902 6.89966 2.8868 2.10051 0.443015 0.179111 0.00121261
threshold=5.9994837478980498 59.331673309991196 64.500000000000014 262.01942669912995 20.00625084633533 0.99999496345779681 6.5897711754964288 53.862062374365223 64.500000000000014 55.88319866925486 155.50000000000003 31.123213147932507 67509.099234028094 1.9996182232637003 52975.041323911435 161.14968607360831 41708.937857763056 6.9042708809498352 32.614093943389996 260500.00000000003 7.9050000000000011 271.96373121005155 43.150000000000013 64989.49338352614 1776.9100000000001 322.33930544641868 230571.9504701533 19.589855021022675 186.01993312517274
decision_type=2 2 2 2 2 2 2 2 2 2 2 2 2 2 2 2 2 2 2 2 2 2 2 2 2 2 2 2 2
left_child=1 2 4 9 13 -6 7 11 12 10 -3 15 -5 -1 -13 -2 20 18 -18 -11 25 -22 23 -9 -19 -8 -24 -4 -29
right_child=6 3 27 8 5 -7 16 22 -10 19 -12 14 -14 -15 -16 -17 17 24 -20 -21 21 -23 26 -25 -26 -27 -28 28 -30
leaf_value=0.0023844513799783666 -0.016387570880934753 -0.013984978962792754 -0.015169884782781893 -0.0022938857584710345 0.009488164771346827 0.0015664668025789921 -0.01661221060052254 -0.016422581958969739 -0.017242242739373068 -0.016031752808182725 -0.0035689894351687169 -0.013400710388768989 0.0059108162200387738 -0.0072165547499450158 -0.0035402283436815354 0.0051005774594486018 0.001322698356089826 -0.0091677172346362849 -0.012387360729757584 -0.0028634981787052402 -0.015238716886809207 -0.0054041916868925264 -0.016729140525863436 -0.004543383215510126 -0.015529204321818103 -0.013193439111157588 -0.014354938305927394 -0.017374076040083297 -0.017216092672789254
leaf_count=901 24 225 20 358 2990 586 362 44 68 254 1171 169 831 229 527 285 101 36 105 20 71 46 150 36 147 92 41 26 85
internal_value=0 0.24634 0.569983 -0.287711 0.631701 0.818261 -0.861135 -0.548135 0.234721 -0.68236 -0.522324 -0.304827 0.343982 0.0438312 -0.59285 0.343085 -1.28164 -0.966759 -0.561083 -1.50649 -1.49818 -1.13624 -1.46716 -1.10166 -1.42722 -1.59174 -1.62188 -1.69353 -1.72532
internal_count=10000 7764 4837 2927 4706 3576 2236 1276 1257 1670 1396 1005 1189 1130 696 309 960 389 206 274 571 117 271 80 183 454 191 131 111
shrinkage=0.01


Tree=19
num_leaves=30
num_cat=0
split_feature=4 16 13 10 10 17 5 13 10 10 14 1 17 31 31 8 16 2 31 17 13 16 9 16 10 2 32 22 16
split_gain=516.887 328.883 178.136 120.22 108.656 83.8797 71.5622 69.8837 69.6764 64.6035 48.2297 46.5742 50.8979 39.9171 34.3228 16.0279 15.9136 16.7968 12.5628 10.1873 8.7844 6.37679 5.87935 9.52188 3.01332 2.78931 2.25529 0.153273 0.0237911
threshold=5.9994837478980498 46.629364866707867 238.03275290039829 59.953228466955757 64.500000000000014 20.00625084633533 6.5897711754964288 155.50000000000003 51.991224151956537 55.88319866925486 0.99999496345779681 1.9971997385625153 22.284849897720523 39591.500000000007 41168.313513201974 97060.863313855501 37.145431093842589 6.6500000000000012 270478.43239712762 38.974736674207016 272.06166560305172 48.532829810483001 1.9996182232637003 43.416002359806548 46.839619755545918 9.4700000000000006 42626.619800776883 6738.3600000000015 32.614093943389996
decision_type=2 2 2 2 2 2 2 2 2 2 2 2 2 2 2 2 2 2 2 2 2 2 2 2 2 2 2 2 2
left_child=1 4 7 13 5 14 8 21 11 -9 -7 12 -2 -4 -1 19 17 -17 -5 26 -21 -3 23 -10 -18 -13 -8 -6 -24
right_child=6 2 3 18 27 10 15 9 22 -11 -12 25 -14 -15 -16 16 24 -19 -20 20 -22 -23 28 -25 -26 -27 -28 -29 -30
leaf_value=-0.0018586818160018007 -0.0078507202738938714 -0.0023829536552174282 -0.0019230261293629043 -0.014607127398904136 -0.015035192181109207 0.010662069560942787 -0.01629066470298144 -0.0021667411960537941 -0.0047845176409861282 -0.013497640767261523 0.0031557465705856079 -0.017765824162738614 0.0023570440559016188 0.0052093923379493813 0.0065179122301843055 -0.015351752784140847 -0.011446666218024117 0.00039558390397590419 0.0022083534672310452 -0.015656010332085905 -0.0027722497598337442 -0.014003115056090061 -0.018086893954311262 -0.014773110719890551 -0.017489590043989211 -0.01153958172582455 -0.013369023520086192 -0.017095558484481691 -0.01732399539891533
leaf_count=429 303 20 383 170 20 2128 417 1418 56 238 409 61 555 1752 361 38 126 100 20 37 51 358 20 126 46 56 145 58 99
internal_value=0 0.244004 -0.120394 0.2581 0.711652 0.76593 -0.85352 -0.554277 -0.543009 -0.377812 0.944277 -0.284689 -0.123983 0.39289 0.196741 -1.27118 -0.89476 -0.388252 -1.28141 -1.45214 -0.816277 -1.33788 -1.39524 -1.16712 -1.30604 -1.47792 -1.55296 -1.65673 -1.74533
internal_count=10000 7764 4359 2325 3405 3327 2236 2034 1276 1656 2537 975 858 2135 790 960 310 138 190 650 88 378 301 182 172 117 562 78 119
shrinkage=0.01


Tree=20
num_leaves=30
num_cat=0
split_feature=4 16 13 10 10 17 13 10 5 10 16 14 31 13 8 8 8 16 4 10 17 13 10 16 16 8 31 32 15
split_gain=507.163 323.048 187.453 122.021 93.4043 76.6444 73.215 71.2018 70.4301 68.6085 45.6761 44.7817 44.3166 30.6611 21.7099 18.7756 15.7999 15.6539 16.5305 15.5202 10.0541 8.63949 7.52913 6.92565 3.65601 6.80451 3.01128 2.24478 0.445894
threshold=5.9994837478980498 43.711715900517582 238.03275290039829 59.953228466955757 60.251789280635244 13.036983309231823 155.50000000000003 55.88319866925486 6.5897711754964288 53.862062374365223 46.315962883757727 0.99999496345779681 39591.500000000007 167.76519981878712 82968.976338112916 29990.000000000004 97060.863313855501 37.145431093842589 6.9042708809498352 64.500000000000014 38.974736674207016 272.06166560305172 64.500000000000014 48.532829810483001 43.150000000000013 74996.481824636852 239884.66111714343 42626.619800776883 6258.5000000000009
decision_type=2 2 2 2 2 2 2 2 2 2 2 2 2 2 2 2 2 2 2 2 2 2 2 2 2 2 2 2 2
left_child=1 4 6 12 5 15 23 -8 9 10 13 -7 -4 -2 -12 -1 20 18 -18 -5 27 -22 -6 -3 25 -11 -19 -10 -26
right_child=8 2 3 19 22 11 7 -9 16 24 14 -13 -14 -15 -16 -17 17 26 -20 -21 21 -23 -24 -25 28 -27 -28 -29 -30
leaf_value=-0.018212044019124511 -0.013082169732428548 -0.0059262917382132529 -0.0017872369667252927 -0.0053037373036199731 -0.004118257949176818 0.010139914299396298 -0.0018144889232281191 -0.013368197630665357 -0.016172249547414017 -0.015571979392528117 -0.011534072353384944 0.0033341002168320796 0.0054400331064784367 0.0025706772296500285 -0.0028019815047023952 -0.0012512395564697387 0.002207435044416678 -0.015827987332863384 -0.011827865327806712 -0.016679862478118087 -0.01553006410994936 -0.0027451281029835461 -0.016334154115421669 -0.013888694039360756 -0.013120902628503427 -0.0035283680984823027 -0.01046408719728144 -0.013254804907864624 -0.016319483004064113
leaf_count=31 56 50 414 80 30 2301 1527 252 417 49 256 466 1900 486 207 167 78 80 60 124 37 51 64 358 20 31 92 145 171
internal_value=0 0.241694 -0.0878457 0.284676 0.749907 0.811906 -0.517876 -0.343237 -0.84605 -0.53799 -0.29881 0.898535 0.414541 0.0954495 -0.761734 -0.390526 -1.2609 -0.886972 -0.384605 -1.21388 -1.44082 -0.808887 -1.23562 -1.28974 -1.445 -1.0837 -1.2954 -1.54116 -1.59833
internal_count=10000 7764 4705 2518 3059 2965 2187 1779 2236 1276 1005 2767 2314 542 463 198 960 310 138 204 650 88 94 408 271 80 172 562 191
shrinkage=0.01


Tree=21
num_leaves=30
num_cat=0
split_feature=4 16 10 13 17 14 5 10 10 10 13 9 8 32 1 17 4 8 16 8 16 17 31 2 8 21 16 16 17
split_gain=497.632 318.549 159.538 142.895 122.666 73.5931 69.4741 63.7326 62.3693 52.1259 47.4253 41.0057 40.8177 33.1066 44.831 31.1361 20.257 19.5855 15.6787 11.8619 15.1766 10.5925 7.80714 5.26537 4.21498 4.1909 0.180284 0.00127785 7.00039e-05
threshold=5.9994837478980498 59.331673309991196 64.500000000000014 262.01942669912995 20.00625084633533 0.99999496345779681 6.3976135644702241 64.500000000000014 49.906728644920513 55.88319866925486 155.50000000000003 1.9996182232637003 67509.099234028094 21514.549076783715 1.9971997385625153 35.633945499487503 6.9042708809498352 86744.094742589485 36.827955344199957 98064.88332205468 54.579871746871952 41.925019953022321 260500.00000000003 7.9050000000000011 69998.000000000015 5039.9450000000006 19.589855021022675 55.517114476362671 28.997425360535889
decision_type=2 2 2 2 2 2 2 2 2 2 2 2 2 2 2 2 2 2 2 2 2 2 2 2 2 2 2 2 2
left_child=1 2 4 9 11 -6 8 12 13 10 -3 -1 -5 17 -15 19 18 -2 -17 23 -21 24 -11 -8 -10 -18 -4 -28 -9
right_child=6 3 26 7 5 -7 15 28 21 22 -12 -13 -14 14 -16 16 25 -19 -20 20 -22 -23 -24 -25 -26 -27 27 -29 -30
leaf_value=0.0023355038776093941 -0.011273776527740679 -0.013650789093414896 -0.014815137000151331 -0.0023162389646261242 0.0092669161645555446 0.0015074667474529796 -0.015832296425300593 -0.01691860020040736 -0.016165584259673182 -0.015704718394293601 -0.0035185378955149833 -0.0071529708243422809 0.0057657709316436658 0.0044674459335314652 -0.013936717458074222 0.0027897467065043169 -0.0088117908043584131 0.0027461640943427981 -0.0084908960962735321 -0.0055256116696259325 -0.014844912602768257 0.00085899239768182317 -0.0026507217128308468 -0.012357558355523473 -0.010433711920303958 -0.017564172645030046 -0.016881476388318745 -0.017060833878782666 -0.016875781926943806
leaf_count=901 154 225 20 358 2990 586 435 43 146 254 1171 229 831 398 62 115 41 54 88 163 126 21 20 302 82 49 91 20 25
internal_value=0 0.23941 0.555921 -0.282641 0.615926 0.798581 -0.838665 0.226998 -0.414787 -0.667965 -0.511965 0.0412159 0.333101 -0.0980855 0.201585 -1.13645 -0.558162 -0.76218 -0.207426 -1.30299 -0.957286 -1.28189 -1.47435 -1.43969 -1.40935 -1.35713 -1.65936 -1.69139 -1.69029
internal_count=10000 7764 4837 2927 4706 3576 2236 1257 917 1670 1396 1130 1189 668 460 1319 293 208 203 1026 289 249 274 737 228 90 131 111 68
shrinkage=0.01


Tree=22
num_leaves=30
num_cat=0
split_feature=4 16 13 10 10 17 13 10 5 10 16 14 31 8 13 8 32 4 16 10 10 16 2 13 16 8 21 13 32
split_gain=488.276 312.923 181.445 117.836 90.3546 74.556 71.0383 68.7617 68.414 66.7533 44.7865 43.2728 43.0559 29.847 24.5374 18.3679 15.5243 17.3775 23.1142 14.9933 7.21962 6.63808 4.61813 6.51193 3.60018 6.67157 2.83364 2.03051 0.449102
threshold=5.9994837478980498 43.711715900517582 238.03275290039829 59.953228466955757 60.251789280635244 13.036983309231823 155.50000000000003 55.88319866925486 6.5897711754964288 53.862062374365223 31.123213147932507 0.99999496345779681 39591.500000000007 52975.041323911435 161.14968607360831 29990.000000000004 41708.937857763056 6.9042708809498352 32.614093943389996 64.500000000000014 64.500000000000014 48.532829810483001 7.9050000000000011 271.96373121005155 43.150000000000013 64989.49338352614 1776.9100000000001 322.33930544641868 11612.48497285431
decision_type=2 2 2 2 2 2 2 2 2 2 2 2 2 2 2 2 2 2 2 2 2 2 2 2 2 2 2 2 2
left_child=1 4 6 12 5 15 21 -8 9 10 14 -7 -4 -12 -2 -1 22 18 -18 -5 -6 -3 27 -24 25 -11 -19 -10 -26
right_child=8 2 3 19 20 11 7 -9 16 24 13 -13 -14 -15 -16 -17 17 26 -20 -21 -22 -23 23 -25 28 -27 -28 -29 -30
leaf_value=-0.018028120224506009 -0.016030880067106127 -0.0058991902122704732 -0.0017798275920402845 -0.0052515492634378422 -0.0041321635194822544 0.0099796212937018364 -0.0017989671263894569 -0.013167698675669297 -0.016169675808502475 -0.016010459590075927 -0.013095560819989995 0.0032880878937617919 0.0053446982595291874 -0.0033979017166414073 0.0050609296514394974 -0.0012479149907363202 0.0014813878955014603 -0.0087948793943986355 -0.011999428748804303 -0.016447694921038286 -0.016106596212455471 -0.013696764354359242 -0.014826513063744976 -0.0050432684682812983 -0.012894948719070237 -0.0042989798248483724 -0.01511472279487323 -0.012794066698663027 -0.016112920966026741
leaf_count=31 24 50 414 80 30 2301 1527 252 362 44 169 466 1900 527 285 167 101 36 105 124 64 358 71 46 20 36 147 92 171
internal_value=0 0.237155 -0.0872646 0.279348 0.737779 0.798722 -0.510599 -0.338711 -0.831326 -0.527693 -0.292058 0.884285 0.406804 -0.574344 0.342324 -0.387233 -1.2412 -0.931188 -0.53159 -1.19628 -1.21916 -1.2723 -1.45526 -1.09636 -1.42479 -1.06581 -1.38631 -1.54825 -1.57745
internal_count=10000 7764 4705 2518 3059 2965 2187 1779 2236 1276 1005 2767 2314 696 309 198 960 389 206 204 94 408 571 117 271 80 183 454 191
shrinkage=0.01


Tree=23
num_leaves=30
num_cat=0
split_feature=4 16 10 13 17 14 5 10 10 10 13 9 8 32 1 17 4 8 16 8 16 17 31 2 8 21 8 13 17
split_gain=479.131 308.37 154.092 138.039 119.191 71.5172 67.5719 61.4986 60.4438 50.4826 45.6544 40.1111 39.8179 32.2251 44.0199 30.534 19.6791 19.0687 15.2179 11.6825 14.903 10.3927 7.68154 5.10586 4.13213 4.12991 0.179738 0.00108397 6.42451e-05
threshold=5.9994837478980498 59.331673309991196 64.500000000000014 262.01942669912995 20.00625084633533 0.99999496345779681 6.3976135644702241 64.500000000000014 49.906728644920513 55.88319866925486 155.50000000000003 1.9996182232637003 67509.099234028094 21514.549076783715 1.9971997385625153 35.633945499487503 6.9042708809498352 86744.094742589485 36.827955344199957 98064.88332205468 54.579871746871952 41.925019953022321 260500.00000000003 7.9050000000000011 69998.000000000015 5039.9450000000006 92971.455487749234 186.01993312517274 28.997425360535889
decision_type=2 2 2 2 2 2 2 2 2 2 2 2 2 2 2 2 2 2 2 2 2 2 2 2 2 2 2 2 2
left_child=1 2 4 9 11 -6 8 12 13 10 -3 -1 -5 17 -15 19 18 -2 -17 23 -21 24 -11 -8 -10 -18 27 -4 -9
right_child=6 3 26 7 5 -7 15 28 21 22 -12 -13 -14 14 -16 16 25 -19 -20 20 -22 -23 -24 -25 -26 -27 -28 -29 -30
leaf_value=0.002291508486073273 -0.011108724507787889 -0.013437718845717704 -0.016796859119569456 -0.0023175740339705072 0.0091215658011786129 0.0014709038696170196 -0.01561658559808511 -0.016691584135653696 -0.015943132424785442 -0.01548860014229244 -0.0034776632821271721 -0.0070945229630883693 0.0056655691496269771 0.0044391016174735714 -0.013812417092571588 0.0027930446271834347 -0.0086171520644601068 0.0027276933318239379 -0.0083286945315182957 -0.0053917048576758875 -0.014639811600693099 0.00093640738396037965 -0.0025307637785584318 -0.012188632329878124 -0.010256889146772401 -0.017322276293519033 -0.014592683742232585 -0.016654843620733224 -0.016650433280163267
leaf_count=901 154 225 31 358 2990 586 435 43 146 254 1171 229 831 398 62 115 41 54 88 163 126 21 20 302 82 49 20 80 25
internal_value=0 0.234923 0.546566 -0.278948 0.605429 0.785678 -0.824126 0.222052 -0.40593 -0.657976 -0.504581 0.0388904 0.325998 -0.0944828 0.201148 -1.11845 -0.545303 -0.75009 -0.199733 -1.28379 -0.940342 -1.26174 -1.45321 -1.41981 -1.38847 -1.3347 -1.63738 -1.66946 -1.66765
internal_count=10000 7764 4837 2927 4706 3576 2236 1257 917 1670 1396 1130 1189 668 460 1319 293 208 203 1026 289 249 274 737 228 90 131 111 68
shrinkage=0.01


Tree=24
num_leaves=30
num_cat=0
split_feature=4 16 13 10 10 17 13 5 10 10 1 32 7 31 8 32 4 16 10 10 14 2 13 16 8 5 2 13 32
split_gain=470.16 303.163 175.644 113.827 87.4045 72.5348 68.9563 66.4984 66.4326 64.9817 43.9813 49.0263 42.3874 41.8333 17.9736 15.2775 16.9921 22.5904 14.502 6.9265 6.49813 4.52247 6.42144 3.54822 6.54348 2.80674 2.71148 2.00618 0.449836
threshold=5.9994837478980498 43.711715900517582 238.03275290039829 59.953228466955757 60.251789280635244 13.036983309231823 155.50000000000003 6.5897711754964288 55.88319866925486 53.862062374365223 1.9971997385625153 21514.549076783715 1.999296364927369 39591.500000000007 29990.000000000004 41708.937857763056 6.9042708809498352 32.614093943389996 64.500000000000014 64.500000000000014 0.2903825094701169 7.9050000000000011 271.96373121005155 43.150000000000013 64989.49338352614 7.1000000000000005 9.4700000000000006 322.33930544641868 11612.48497285431
decision_type=2 2 2 2 2 2 2 2 2 2 2 2 2 2 2 2 2 2 2 2 2 2 2 2 2 2 2 2 2
left_child=1 4 6 13 5 14 20 9 -8 10 11 -2 -7 -4 -1 21 17 -17 -5 -6 -3 27 -23 24 -11 -18 -12 -9 -25
right_child=7 2 3 18 19 12 8 15 -10 23 26 -13 -14 -15 -16 16 25 -19 -20 -21 -22 22 -24 28 -26 -27 -28 -29 -30
leaf_value=-0.017849333998278802 -0.0080081843075080587 -0.013339271135076556 -0.0017721616012074508 -0.0051999739433925864 -0.0041450479551623275 0.010778802584548398 -0.0017834695430324597 -0.015960494209208812 -0.012973778073645468 -0.01580641665467461 -0.017421163136030596 0.0019880462471218775 0.0057181206119002572 0.0052513367820260929 -0.0012443450953330594 0.0015249784825831151 -0.01066334667960467 -0.011814911475693454 -0.016226781499550241 -0.015886898678851819 -0.0042424804657917089 -0.014641408597744071 -0.0049110955750536305 -0.012685055230456444 -0.0041908201293372645 -0.015763974979944667 -0.011293456165978464 -0.012597371263855775 -0.015913795108644838
leaf_count=31 296 373 414 80 30 1634 1527 362 252 44 61 591 1133 1900 167 101 75 105 124 64 35 71 46 20 36 108 57 92 171
internal_value=0 0.23272 -0.0866894 0.274131 0.72594 0.785842 -0.503468 -0.81699 -0.334258 -0.517629 -0.285451 -0.133721 0.870364 0.399231 -0.383962 -1.22216 -0.914294 -0.519004 -1.17934 -1.20314 -1.2554 -1.43518 -1.07944 -1.4053 -1.04845 -1.36551 -1.44527 -1.52751 -1.55741
internal_count=10000 7764 4705 2518 3059 2965 2187 2236 1779 1276 1005 887 2767 2314 198 960 389 206 204 94 408 571 117 271 80 183 118 454 191
shrinkage=0.01


Tree=25
num_leaves=30
num_cat=0
split_feature=4 16 10 13 17 14 5 10 10 10 13 9 8 32 1 17 4 8 16 8 16 17 31 2 21 8 16 13 17
split_gain=461.402 298.61 148.873 133.392 115.654 70.2518 65.6877 59.3632 58.6351 48.9119 44.0323 39.2243 38.8449 31.0666 42.5463 29.9905 19.1542 18.7541 14.8191 11.5238 14.6529 10.2083 7.56265 4.94955 4.0864 4.06113 0.181366 0.00127512 5.90323e-05
threshold=5.9994837478980498 59.331673309991196 64.500000000000014 262.01942669912995 20.00625084633533 0.99999496345779681 6.3976135644702241 64.500000000000014 49.906728644920513 55.88319866925486 155.50000000000003 1.9996182232637003 67509.099234028094 21514.549076783715 1.9971997385625153 35.633945499487503 6.9042708809498352 52975.041323911435 36.827955344199957 98064.88332205468 54.579871746871952 41.925019953022321 260500.00000000003 7.9050000000000011 5039.9450000000006 69998.000000000015 19.589855021022675 186.01993312517274 27.98787698099169
decision_type=2 2 2 2 2 2 2 2 2 2 2 2 2 2 2 2 2 2 2 2 2 2 2 2 2 2 2 2 2
left_child=1 2 4 9 11 -6 8 12 13 10 -3 -1 -5 17 -15 19 18 -2 -17 23 -21 25 -11 -8 -18 -10 -4 -28 -9
right_child=6 3 26 7 5 -7 15 28 21 22 -12 -13 -14 14 -16 16 24 -19 -20 20 -22 -23 -24 -25 -26 -27 27 -29 -30
leaf_value=0.0022525901006965683 -0.014851508314909756 -0.013237799471734615 -0.014368600459632912 -0.0023183882532109364 0.008984797566677253 0.0014003264321461196 -0.015408641054123332 -0.016475382004728884 -0.015735865506754054 -0.015280647989902101 -0.0034371996796960882 -0.0070309065301186122 0.005567408074734278 0.0043747203130496109 -0.013596441116035172 0.0028105061499180163 -0.0084210897974522862 -0.0025070463268461523 -0.0081736239615116477 -0.005257639286164819 -0.014442066768473445 0.0010118233803362668 -0.0024137437535302754 -0.012026911090050156 -0.017098281044336871 -0.010087189006531581 -0.016612096747162103 -0.016448471472174736 -0.016436110876144883
leaf_count=901 82 225 20 358 2990 586 435 42 146 254 1171 229 831 398 62 115 41 126 88 163 126 21 20 302 49 82 26 85 26
internal_value=0 0.230533 0.537437 -0.275383 0.59518 0.77294 -0.810017 0.217215 -0.397517 -0.648293 -0.497443 0.0370821 0.319047 -0.0910823 0.199182 -1.1009 -0.532341 -0.735236 -0.191526 -1.2652 -0.923691 -1.24271 -1.43283 -1.40068 -1.31317 -1.3688 -1.61637 -1.64869 -1.64604
internal_count=10000 7764 4837 2927 4706 3576 2236 1257 917 1670 1396 1130 1189 668 460 1319 293 208 203 1026 289 249 274 737 90 228 131 111 68
shrinkage=0.01


Tree=26
num_leaves=30
num_cat=0
split_feature=4 16 13 10 10 13 13 5 10 10 14 16 4 8 31 13 32 16 5 10 10 14 31 16 8 17 8 15 28
split_gain=452.8 293.718 170.043 109.967 84.5767 71.2423 66.9473 64.6618 64.2058 63.2809 46.2832 43.1783 41.1293 28.5864 25.6971 23.9884 15.0438 16.7223 22.021 14.0385 6.65315 6.36294 4.47962 3.49978 6.42186 3.22158 2.57948 0.453285 0.145654
threshold=5.9994837478980498 43.711715900517582 238.03275290039829 59.953228466955757 60.251789280635244 180.18985545473731 155.50000000000003 6.5897711754964288 55.88319866925486 53.862062374365223 0.99999496345779681 31.123213147932507 5.0012759690920019 52975.041323911435 21920.000000000004 161.14968607360831 41708.937857763056 36.827955344199957 7.1000000000000005 64.500000000000014 64.500000000000014 0.2903825094701169 333487.50000000006 43.150000000000013 64989.49338352614 38.974736674207016 179590.26959117645 6258.5000000000009 36.772878857942928
decision_type=2 2 2 2 2 2 2 2 2 2 2 2 2 2 2 2 2 2 2 2 2 2 2 2 2 2 2 2 2
left_child=1 4 6 12 5 14 21 9 -8 11 -7 15 -4 -13 -1 -2 22 18 -18 -5 -6 -3 25 24 -11 -9 -19 -25 -22
right_child=7 2 3 19 20 10 8 16 -10 23 -12 13 -14 -15 -16 -17 17 26 -20 -21 28 -23 -24 27 -26 -27 -28 -29 -30
leaf_value=-0.0061335158397809722 -0.015811078800130787 -0.013167774754292868 0.0034364926755679134 -0.005148987896539713 -0.0041569119190389648 0.01059867763582851 -0.0017680033981354434 -0.015190451736132402 -0.012785917764650465 -0.01561047001553203 0.0033102621308261689 -0.012776227852731485 0.018740288507929706 -0.0032707310934337007 0.0037893722227435355 0.0050596661210495003 -0.0011846545733143444 -0.015208767668391051 -0.014924646164682021 -0.016014762129580626 -0.014225934488902466 -0.0041584142567833637 -0.0075084445802611338 -0.012473375106767409 -0.0040852706533983851 -0.0099749940701742545 -0.0090081575966784594 -0.015723463771919674 -0.016338279858194936
leaf_count=137 24 373 2241 80 30 1957 1527 478 252 44 426 169 73 527 445 285 153 131 70 124 20 35 39 20 36 54 35 171 44
internal_value=0 0.22838 -0.0861115 0.269035 0.714325 0.773209 -0.496463 -0.803075 -0.329874 -0.507849 0.927948 -0.279026 0.391818 -0.556546 0.144628 0.344037 -1.20373 -0.89788 -0.539354 -1.16289 -1.1878 -1.23885 -1.41582 -1.3865 -1.03159 -1.46501 -1.38902 -1.53814 -1.56783
internal_count=10000 7764 4705 2518 3059 2965 2187 2236 1779 1276 2383 1005 2314 696 582 309 960 389 223 204 94 408 571 271 80 532 166 191 64
shrinkage=0.01


Tree=27
num_leaves=30
num_cat=0
split_feature=4 16 10 13 17 14 5 10 10 10 13 9 8 32 1 17 4 8 16 8 16 17 31 2 21 8 10 16 17
split_gain=444.384 289.086 143.862 128.984 112.531 68.3862 63.9413 57.3345 56.8594 47.4308 42.5249 38.3575 38.0658 30.2431 41.784 29.3348 18.7142 18.4269 14.3842 11.3532 14.4142 10.0251 7.45471 4.84527 4.04838 3.99003 0.181343 0.00112641 5.42778e-05
threshold=5.9994837478980498 59.331673309991196 64.500000000000014 262.01942669912995 20.00625084633533 0.99999496345779681 6.3976135644702241 64.500000000000014 49.906728644920513 55.88319866925486 174.69725983227679 1.9996182232637003 67509.099234028094 21514.549076783715 1.9971997385625153 35.633945499487503 6.9042708809498352 86744.094742589485 36.827955344199957 98064.88332205468 54.579871746871952 41.925019953022321 260500.00000000003 7.9050000000000011 5039.9450000000006 69998.000000000015 95.500000000000014 55.000977854127122 28.997425360535889
decision_type=2 2 2 2 2 2 2 2 2 2 2 2 2 2 2 2 2 2 2 2 2 2 2 2 2 2 2 2 2
left_child=1 2 4 9 11 -6 8 12 13 10 -3 -1 -5 17 -15 19 18 -2 -17 23 -21 25 -11 -8 -18 -10 27 -4 -9
right_child=6 3 26 7 5 -7 15 28 21 22 -12 -13 -14 14 -16 16 24 -19 -20 20 -22 -23 -24 -25 -26 -27 -28 -29 -30
leaf_value=0.0022069001659321642 -0.010793127860158503 -0.010496029984672851 -0.016256060860784256 -0.0023282565793856843 0.0088474502100605156 0.0013627627323584629 -0.015210562152272605 -0.01626795324338326 -0.015530555327487179 -0.015081480564247357 -0.0027083581814230312 -0.0069753916530586688 0.0054786517462012433 0.0043464221765370627 -0.013479253866309047 0.0028095435430053914 -0.0082553058516387709 0.0028156986165508279 -0.0080206719720921082 -0.0051277024706800215 -0.014251776493178837 0.0010851863784209269 -0.0022965848894751111 -0.011857512687675993 -0.016909529517312605 -0.0099193490437229602 -0.014161349541247845 -0.016426036005663388 -0.016229861477137862
leaf_count=901 154 400 91 358 2990 586 435 43 146 254 996 229 831 398 62 115 41 54 88 163 126 21 20 302 49 82 20 20 25
internal_value=0 0.226245 0.528468 -0.271779 0.585115 0.760676 -0.796252 0.212706 -0.38909 -0.638809 -0.490409 0.0345661 0.312473 -0.0876807 0.198681 -1.08396 -0.521173 -0.723727 -0.184429 -1.24693 -0.907552 -1.2238 -1.41324 -1.38181 -1.29496 -1.3493 -1.59625 -1.62868 -1.6254
internal_count=10000 7764 4837 2927 4706 3576 2236 1257 917 1670 1396 1130 1189 668 460 1319 293 208 203 1026 289 249 274 737 90 228 131 111 68
shrinkage=0.01


Tree=28
num_leaves=30
num_cat=0
split_feature=4 16 13 10 10 13 13 5 10 10 14 17 1 31 31 8 16 2 13 10 17 13 10 14 9 12 10 32 2
split_gain=436.13 284.628 164.564 106.25 81.8472 69.6735 65.2477 62.9142 62.1289 61.6548 44.8687 42.4713 42.409 40.3162 25.0486 14.8477 14.4332 15.6565 13.9659 13.6041 9.1967 8.33511 6.39423 6.23535 3.45466 6.39476 3.03094 2.18503 0.146083
threshold=5.9994837478980498 43.711715900517582 238.03275290039829 59.953228466955757 60.251789280635244 180.18985545473731 155.50000000000003 6.5897711754964288 55.88319866925486 53.862062374365223 0.99999496345779681 22.284849897720523 1.9971997385625153 39591.500000000007 21920.000000000004 97060.863313855501 37.145431093842589 6.6500000000000012 165.05396500943689 64.500000000000014 38.974736674207016 272.06166560305172 64.500000000000014 0.2903825094701169 1.9996182232637003 12.123821434855294 46.839619755545918 42626.619800776883 16.253786069243066
decision_type=2 2 2 2 2 2 2 2 2 2 2 2 2 2 2 2 2 2 2 2 2 2 2 2 2 2 2 2 2
left_child=1 4 6 13 5 14 23 9 -8 11 -7 18 -13 -4 -1 20 17 -17 -2 -5 27 -22 -6 -3 25 -11 -18 -9 -24
right_child=7 2 3 19 22 10 8 15 -10 24 -12 12 -14 -15 -16 16 26 -19 -20 -21 21 -23 28 -25 -26 -27 -28 -29 -30
leaf_value=-0.0060923780163432409 -0.016368633323934151 -0.013011961620071471 -0.0018150321766172059 -0.0050985904660170714 -0.0041678092063923778 0.010443316361579356 -0.0017478849381300093 -0.015362187937659637 -0.012603817176087946 -0.0052755455771302329 0.0032651005642047532 0.0021471035381395815 -0.013657358250338827 0.0050818951078919839 0.0037063345251904961 -0.014582148378901596 -0.01055139600398074 0.00072408663427815569 -0.0063663439193721973 -0.015812284843372264 -0.014928452346429227 -0.002305888257577794 -0.016140362772558349 -0.0040865187781217692 -0.016466442451201206 -0.014338843889893614 -0.016671793988743602 -0.012459058219463706 -0.014017236967060507
leaf_count=137 71 373 414 80 30 1957 1527 417 252 45 426 576 79 1900 445 38 126 100 279 124 37 51 44 35 111 115 46 145 20
internal_value=0 0.224139 -0.0855357 0.263963 0.703019 0.760905 -0.489504 -0.789493 -0.32516 -0.498268 0.914167 -0.272726 0.0279717 0.384465 0.139159 -1.18587 -0.821673 -0.338976 -0.838815 -1.14699 -1.36249 -0.755876 -1.17287 -1.22383 -1.36835 -1.17641 -1.21833 -1.46001 -1.54769
internal_count=10000 7764 4705 2518 3059 2965 2187 2236 1779 1276 2383 1005 655 2314 582 960 310 138 350 204 650 88 94 408 271 160 172 562 64
shrinkage=0.01


Tree=29
num_leaves=30
num_cat=0
split_feature=4 16 10 13 13 14 5 10 10 10 13 8 8 8 17 0 13 4 16 8 16 17 31 10 2 21 8 8 17
split_gain=428.062 279.996 139.119 124.657 110.289 75.6558 62.2366 55.3795 55.2403 46.0101 41.2318 37.138 30.108 29.588 28.6534 27.5908 26.8754 18.3021 14.0305 11.0797 14.1467 9.85541 7.34781 7.04324 4.74219 3.99064 3.94671 0.183089 4.99609e-05
threshold=5.9994837478980498 59.331673309991196 62.500000000000007 262.01942669912995 178.01813129185359 0.99999496345779681 6.3976135644702241 64.500000000000014 49.906728644920513 55.88319866925486 155.50000000000003 67509.099234028094 40010.675327961515 83997.500000000015 35.633945499487503 26614.40639496197 173.05568427387871 6.9042708809498352 36.827955344199957 98064.88332205468 54.579871746871952 41.925019953022321 260500.00000000003 64.500000000000014 7.9050000000000011 5039.9450000000006 69998.000000000015 92971.455487749234 27.98787698099169
decision_type=2 2 2 2 2 2 2 2 2 2 2 2 2 2 2 2 2 2 2 2 2 2 2 2 2 2 2 2 2
left_child=1 2 4 9 12 -6 8 11 13 10 -3 -5 -1 16 19 -15 -2 18 -16 24 -21 26 -11 -4 -8 -19 -10 -25 -9
right_child=6 3 23 7 5 -7 14 28 21 22 -12 -13 -14 15 17 -17 -18 25 -20 20 -22 -23 -24 27 -26 -27 -28 -29 -30
leaf_value=-0.0070327932017551489 -0.01519427046636077 -0.012874807257155141 -0.0044830871266995009 -0.0023278276070844471 0.0085527063944346952 0.0012021883638342087 -0.015010579755171907 -0.016070518645508469 -0.015345163747870552 -0.014888024966233234 -0.0033528558564864799 0.0053842350352653343 0.0015307647358797237 0.0072125553136242054 0.0028156514178322967 -0.010911212716887124 -0.0017995412287945415 -0.0081148288877686443 -0.007889283788777882 -0.0050222988630733382 -0.014075961686994418 0.0011545449779665777 -0.0021845025092595552 -0.01609673546948126 -0.011685743017140241 -0.01672467236749367 -0.0097521620911116391 -0.013953208444345356 -0.016034120384098242
leaf_count=230 74 225 27 358 3180 683 435 42 146 254 1171 831 586 220 115 40 334 41 88 163 126 21 20 111 302 49 82 20 26
internal_value=0 0.222054 0.51975 -0.268333 0.581289 0.723755 -0.782862 0.208075 -0.380965 -0.629492 -0.483492 0.305812 -0.0884439 -0.0841887 -1.06745 0.443628 -0.422072 -0.510766 -0.177874 -1.22902 -0.893383 -1.20611 -1.39421 -1.37445 -1.36272 -1.27797 -1.33108 -1.57696 -1.60566
internal_count=10000 7764 4837 2927 4679 3863 2236 1257 917 1670 1396 1189 816 668 1319 260 408 293 203 1026 289 249 274 158 737 90 228 131 68
shrinkage=0.01


Tree=30
num_leaves=30
num_cat=0
split_feature=4 16 13 10 10 13 10 2 4 14 8 16 0 4 13 10 16 2 9 10 16 16 10 8 23 8 24 22 10
split_gain=420.116 276.092 151.687 128.937 89.5906 73.2407 61.2766 73.6494 60.7195 53.9615 38.3279 28.8147 28.2849 25.8647 25.6911 27.7606 21.3513 17.7481 7.29341 7.67167 11.2314 5.66542 4.76511 4.20203 0.290382 0.444178 0.210664 0.158546 0.0398404
threshold=5.9994837478980498 46.629364866707867 189.018913549492 62.500000000000007 64.500000000000014 180.18985545473731 49.906728644920513 8.1948082500273838 5.0012759690920019 0.99999496345779681 83002.000000000015 31.300368753204925 28019.35596699519 4.9996182232637008 155.50000000000003 44.999908716645194 36.827955344199957 6.6500000000000012 1.9996182232637003 64.500000000000014 40.406791117378795 48.532829810483001 64.500000000000014 179590.26959117645 4787.0800000000008 63706.025375361503 424.03500000000003 6738.3600000000015 53.862062374365223
decision_type=2 2 2 2 2 2 2 2 2 2 2 2 2 2 2 2 2 2 2 2 2 2 2 2 2 2 2 2 2
left_child=1 4 14 8 5 13 7 16 -4 -7 11 -9 -12 -1 21 -16 17 -2 19 20 -8 -3 -5 -18 25 -20 -21 -6 -26
right_child=6 2 3 22 27 9 18 10 -10 -11 12 -13 -14 -15 15 -17 23 -19 24 26 -22 -23 -24 -25 28 -27 -28 -29 -30
leaf_value=0.0039538059689555663 -0.014926411180386354 -0.0020520854591936557 0.0013701660463503993 -0.0067502748123115198 -0.013820860427569937 0.009812775480934656 -0.0040759296205477961 0.0016480971340314791 0.018766440814922524 0.0023760967227810072 0.0054908395158680401 -0.0085014414251924162 -0.014073177695763056 -0.0044091195620395412 -0.0026766778136355402 -0.012178943194607245 -0.014112567119470574 -0.0043201770789450021 -0.016218913706443742 -0.014013659040098667 -0.012953085345438318 -0.01301344479760299 -0.015803915756808479 -0.0068466991413813107 -0.017181685533325625 -0.012383663286264987 -0.016339004558474476 -0.01595553802750202 -0.016380129391723657
leaf_count=412 86 20 3103 27 20 2205 95 168 83 477 304 343 33 233 398 182 379 282 35 20 155 358 188 36 31 20 95 58 154
internal_value=0 0.219994 -0.114447 0.0832818 0.650728 0.699529 -0.776222 -0.574169 0.182186 0.846932 -0.166912 -0.514561 0.357739 0.0931714 -0.825504 -0.562257 -1.0275 -0.673823 -1.3344 -1.15297 -0.953833 -1.24126 -1.46107 -1.34729 -1.61279 -1.48159 -1.59363 -1.54081 -1.65163
internal_count=10000 7764 4359 3401 3405 3327 2236 1631 3186 2682 848 511 337 645 958 580 783 368 605 365 250 378 215 415 240 55 115 78 185
shrinkage=0.01


Tree=31
num_leaves=30
num_cat=0
split_feature=4 16 13 10 17 10 13 5 10 10 1 17 7 4 8 32 4 16 10 10 14 10 31 16 8 17 21 8 32
split_gain=412.329 271.275 157.305 101.297 79.3356 62.7877 61.9904 60.6134 59.4125 59.2484 41.7209 45.686 40.8275 39.447 17.7641 14.6546 16.1833 21.2594 12.8987 10.0914 6.12373 4.55946 4.41772 3.43775 6.25467 3.03651 2.80801 2.6792 0.464353
threshold=5.9994837478980498 43.711715900517582 238.03275290039829 59.953228466955757 13.036983309231823 60.251789280635244 155.50000000000003 6.5897711754964288 55.88319866925486 53.862062374365223 1.9971997385625153 22.284849897720523 1.999296364927369 5.0012759690920019 29990.000000000004 41708.937857763056 6.9042708809498352 32.614093943389996 64.500000000000014 43.939008514016898 0.2903825094701169 64.500000000000014 333487.50000000006 43.150000000000013 64989.49338352614 38.974736674207016 1776.9100000000001 119190.75055378518 11612.48497285431
decision_type=2 2 2 2 2 2 2 2 2 2 2 2 2 2 2 2 2 2 2 2 2 2 2 2 2 2 2 2 2
left_child=1 4 6 13 14 12 20 9 -8 10 11 -2 -6 -4 -1 22 17 -17 -5 -16 -3 -7 25 24 -11 -9 -18 -12 -25
right_child=7 2 3 18 5 21 8 15 -10 23 27 -13 -14 -15 19 16 26 -19 -20 -21 -22 -23 -24 28 -26 -27 -28 -29 -30
leaf_value=-0.01734911832632325 -0.0073775810361014476 -0.012752226046341377 0.0032759735788984697 -0.0050649878046394635 0.010296442512051304 -0.0045390289204791058 -0.001732440131508988 -0.014740646737393117 -0.0123751362488178 -0.015162708497973605 -0.015660917755448055 0.0021727410579913541 0.0053146151477788143 0.018297122891584632 0.00032778979705911683 0.0017867183514006788 -0.00794267123631528 -0.011206596195313041 -0.015523828243698952 -0.011157585556433862 -0.0038916467479044427 -0.014926484994495431 -0.0070809509506468363 -0.011963822658577301 -0.0037374965140897116 -0.0096582496276997262 -0.01428620934441978 -0.0084003277555426414 -0.015278692164914249
leaf_count=38 311 373 2241 80 1634 28 1527 478 252 44 91 576 1133 73 140 101 36 105 124 40 35 46 39 20 36 54 147 27 171
internal_value=0 0.21795 -0.0845086 0.257362 0.686258 0.776722 -0.479928 -0.769666 -0.319976 -0.483784 -0.263209 -0.115754 0.825127 0.374726 -0.480646 -1.16051 -0.857679 -0.471158 -1.12562 -0.218718 -1.1982 -1.08304 -1.37168 -1.34112 -0.987949 -1.42098 -1.30239 -1.39864 -1.49295
internal_count=10000 7764 4705 2518 3059 2841 2187 2236 1779 1276 1005 887 2767 2314 218 960 389 206 204 180 408 74 571 271 80 532 183 118 191
shrinkage=0.01


Tree=32
num_leaves=30
num_cat=0
split_feature=4 16 10 13 13 14 17 10 10 5 10 13 8 4 8 10 8 1 8 16 12 31 10 2 21 5 8 28 2
split_gain=404.74 267.295 135.7 118.926 108.597 75.3667 60.1311 51.5753 41.2474 39.9625 37.624 36.2758 35.3839 31.4867 30.2209 22.8019 19.6296 19.357 10.9055 13.8989 7.5333 7.168 6.51849 4.63183 3.94798 4.47285 3.7693 0.185859 0.0111877
threshold=5.9994837478980498 60.00255738676865 62.500000000000007 262.01942669912995 178.01813129185359 0.99999496345779681 35.633945499487503 64.500000000000014 55.88319866925486 6.3976135644702241 49.906728644920513 189.018913549492 67509.099234028094 6.9042708809498352 40010.675327961515 51.991224151956537 51727.491267870304 1.9971997385625153 98064.88332205468 54.579871746871952 15.713612280966345 260500.00000000003 64.500000000000014 7.9050000000000011 5039.9450000000006 7.1000000000000005 69998.000000000015 32.308991982493716 6.785000000000001
decision_type=2 2 2 2 2 2 2 2 2 2 2 2 2 2 2 2 2 2 2 2 2 2 2 2 2 2 2 2 2
left_child=1 2 4 8 14 -6 9 12 11 10 16 -3 -5 15 -1 17 -2 -8 23 -20 -17 -10 -4 -11 25 -15 -12 -24 -26
right_child=6 3 22 7 5 -7 13 -9 21 18 26 -13 -14 24 -16 20 -18 -19 19 -21 -22 -23 27 -25 28 -27 -28 -29 -30
leaf_value=-0.0070904999011022962 -0.0092282866607028748 -0.0090246584107759216 -0.0048057273527344208 -0.0024236968739965552 0.0083350884720255741 0.0010485020170323029 0.0043764397847537708 -0.015776750297116546 -0.014602986419408033 -0.014750490701458143 -0.015030951074649794 -0.0022850885082556947 0.005199299464966849 -0.0010381051494567919 0.0014280314837375341 0.00050423213288837475 -0.00026701706510381474 -0.012165422597198808 -0.0048253520239775263 -0.01382367882120096 -0.014274844297021968 -0.0020282508188270037 -0.013658711452066069 -0.011453110445402639 -0.016144897840641558 -0.014495161705802697 -0.0093139615323506019 -0.01582653552070902 -0.01676479531489734
leaf_count=234 137 536 28 348 3224 693 314 67 249 435 139 821 817 20 593 20 355 32 163 126 49 20 20 302 25 21 74 114 24
internal_value=0 0.215923 0.501698 -0.2728 0.562224 0.702802 -0.763295 0.196688 -0.631509 -0.944769 -0.575948 -0.490939 0.291722 -0.151431 -0.0982951 0.0797969 -0.275301 0.287541 -1.20419 -0.870514 -0.99263 -1.36451 -1.35476 -1.33748 -1.25069 -0.785775 -1.30155 -1.55032 -1.64513
internal_count=10000 7764 4906 2858 4744 3917 2236 1232 1626 1731 705 1357 1165 505 827 415 492 346 1026 289 69 269 162 737 90 41 213 134 49
shrinkage=0.01


Tree=33
num_leaves=30
num_cat=0
split_feature=4 16 13 10 17 10 13 10 2 10 7 31 8 16 0 16 2 8 10 10 9 10 16 14 10 8 23 8 24
split_gain=397.261 263.148 152.066 97.9149 77.2364 60.7007 60.3864 59.1881 70.5964 57.6069 40.0147 38.9425 37.2387 28.1593 27.6581 20.8469 17.5729 17.3384 12.5082 9.85453 7.21474 7.54576 10.9976 6.01491 4.42566 4.23134 0.288667 0.437798 0.210745
threshold=5.9994837478980498 43.711715900517582 238.03275290039829 59.953228466955757 13.036983309231823 60.251789280635244 155.50000000000003 49.906728644920513 8.1948082500273838 55.88319866925486 1.999296364927369 39591.500000000007 83002.000000000015 31.300368753204925 28019.35596699519 37.700305707479885 6.6500000000000012 29990.000000000004 64.500000000000014 43.939008514016898 1.9996182232637003 64.500000000000014 40.406791117378795 0.2903825094701169 64.500000000000014 179590.26959117645 4787.0800000000008 63706.025375361503 424.03500000000003
decision_type=2 2 2 2 2 2 2 2 2 2 2 2 2 2 2 2 2 2 2 2 2 2 2 2 2 2 2 2 2
left_child=1 4 6 11 17 10 23 8 15 -8 -6 -4 13 -10 -14 16 -2 -1 -5 -19 21 22 -9 -3 -7 -17 27 -22 -23
right_child=7 2 3 18 5 24 9 20 12 -11 -12 -13 14 -15 -16 25 -18 19 -20 -21 26 28 -24 -25 -26 -27 -28 -29 -30
leaf_value=-0.017172949312062976 -0.014686768971465676 -0.012601278798892954 -0.0018895129938851971 -0.0050236307295800442 0.010154200632484449 -0.0044923389669786528 -0.0017112840519153143 -0.0038826832370712984 0.0016867867161463931 -0.012210246161922119 0.0052178634466953453 0.0048914432646606359 0.0054648306201467789 -0.0083520596875199631 -0.013895800957142674 -0.013921250948408966 -0.0042003772050887732 0.00030813717586222175 -0.015341828925217229 -0.011050315623146897 -0.015952263672710635 -0.013734102253191258 -0.012690294225267089 -0.0038129277441681961 -0.014743544762656118 -0.0066051257239634819 -0.016254361480094549 -0.012126984403061414 -0.016072312131540981
leaf_count=38 88 373 414 80 1634 28 1527 95 168 252 1133 1900 304 343 33 373 286 140 124 40 35 20 155 35 46 36 185 20 95
internal_value=0 0.213927 -0.0840686 0.252196 0.675686 0.76508 -0.473145 -0.756895 -0.558312 -0.315393 0.812648 0.367385 -0.159876 -0.50293 0.357319 -1.00408 -0.659494 -0.476178 -1.11121 -0.217572 -1.30817 -1.12714 -0.929305 -1.18355 -1.06819 -1.32657 -1.58652 -1.45505 -1.56675
internal_count=10000 7764 4705 2518 3059 2841 2187 2236 1631 1779 2767 2314 848 511 337 783 374 218 204 180 605 365 250 408 74 409 240 55 115
shrinkage=0.01


Tree=34
num_leaves=30
num_cat=0
split_feature=4 16 10 13 17 14 17 10 10 5 10 27 13 8 4 21 8 1 12 8 16 31 10 2 21 5 9 16 2
split_gain=389.932 259.011 131.105 114.984 106.617 59.6999 58.8221 49.8528 40.0527 39.0147 36.4457 35.7773 35.2165 34.5251 30.6905 22.21 19.1399 16.4091 13.5693 10.7634 13.6672 7.07379 6.42978 4.59745 3.90313 4.37775 3.74576 0.187391 0.0108962
threshold=5.9994837478980498 60.00255738676865 62.500000000000007 262.01942669912995 20.00625084633533 0.99999496345779681 35.633945499487503 64.500000000000014 55.88319866925486 6.3976135644702241 49.906728644920513 0.017132605146016725 174.69725983227679 67509.099234028094 6.9042708809498352 7827.9549075156865 51727.491267870304 1.9971997385625153 13.776555335083055 98064.88332205468 54.579871746871952 260500.00000000003 64.500000000000014 7.9050000000000011 5039.9450000000006 7.1000000000000005 1.9996182232637003 19.589855021022675 6.785000000000001
decision_type=2 2 2 2 2 2 2 2 2 2 2 2 2 2 2 2 2 2 2 2 2 2 2 2 2 2 2 2 2
left_child=1 2 4 8 11 -6 9 13 12 10 16 -1 -3 -5 15 17 -2 -8 -17 23 -21 -10 -4 -11 25 -16 -12 -24 -26
right_child=6 3 22 7 5 -7 14 -9 21 19 26 -13 -14 -15 24 18 -18 -19 -20 20 -22 -23 27 -25 28 -27 -28 -29 -30
leaf_value=-0.00076100735569109318 -0.009104403336889862 -0.010035682028066607 -0.0046959002753410072 -0.0024211172245064486 0.0084030969678290639 0.0014128340982896607 0.0055233694076383486 -0.015599766341854466 -0.014424947842298195 -0.014582030051889579 -0.010553137256876857 0.013213932355682649 -0.0028211482917321995 0.0051097661424178492 -0.00096332140734926646 0.0053103064411339183 -0.00025087934489252206 -0.0111025057873169 -0.0098051448524126266 -0.004709566079872286 -0.013649137601187118 -0.0019216126176038845 -0.013471393403725464 -0.011288923623991018 -0.015968754875320006 -0.014301491512007911 -0.016106661214068969 -0.015656851055832904 -0.016582487019853608
leaf_count=1066 137 389 28 348 3012 587 257 67 249 435 125 79 968 817 20 32 355 27 99 163 126 20 20 302 25 21 88 114 24
internal_value=0 0.211947 0.493516 -0.26943 0.552903 0.724399 -0.750578 0.192341 -0.622509 -0.930532 -0.565914 0.0205553 -0.484164 0.28544 -0.145 0.0830172 -0.270499 0.397438 -0.607905 -1.18767 -0.855732 -1.34691 -1.33749 -1.32055 -1.2335 -0.77063 -1.2828 -1.53308 -1.62724
internal_count=10000 7764 4906 2858 4744 3599 2236 1232 1626 1731 705 1145 1357 1165 505 415 492 284 131 1026 289 269 162 737 90 41 213 134 49
shrinkage=0.01


Tree=35
num_leaves=30
num_cat=0
split_feature=4 16 13 10 17 27 10 5 10 13 16 7 4 13 8 8 32 16 5 10 10 30 13 29 10 16 8 8 2
split_gain=382.74 255.137 147.226 94.6445 75.1108 59.1151 58.6764 57.8728 56.3843 52.4278 41.0146 39.2602 38.6098 28.0926 19.162 16.987 14.4228 15.8514 20.5648 12.16 9.59854 8.01499 4.37986 8.32485 4.30389 3.39205 6.1186 2.5591 2.03004
threshold=5.9994837478980498 43.711715900517582 238.03275290039829 59.953228466955757 13.036983309231823 0.11016934083033732 60.251789280635244 6.5897711754964288 53.862062374365223 155.50000000000003 46.315962883757727 1.999296364927369 5.0012759690920019 167.76519981878712 54998.000000000007 29990.000000000004 41708.937857763056 36.827955344199957 7.1000000000000005 64.500000000000014 43.939008514016898 49.982241755773195 322.33930544641868 -76.679118915180595 64.500000000000014 43.150000000000013 64989.49338352614 179590.26959117645 8.1850000000000005
decision_type=2 2 2 2 2 2 2 2 2 2 2 2 2 2 2 2 2 2 2 2 2 2 2 2 2 2 2 2 2
left_child=1 4 5 12 15 9 11 8 10 -3 13 -6 -4 -2 -12 -1 22 18 -18 -5 -17 -7 28 -24 -8 26 -10 -19 -9
right_child=7 2 3 19 6 21 24 16 25 -11 14 -13 -14 -15 -16 20 17 27 -20 -21 -22 -23 23 -25 -26 -27 -28 -29 -30
leaf_value=-0.01701422545101958 -0.012256438970535768 -0.011996269308411956 0.0031392491943936195 -0.0049731209712889973 0.010014149504705017 0.018441141516453995 -0.0044419827747318027 -0.015013566161906095 -0.014830134600909635 -0.0037961974098810287 -0.014208305634644966 0.0051200590666274741 0.018027901297890704 0.0027782900215225933 -0.0046128888554998245 0.00029671820521038082 -0.00073043645378872112 -0.014456596645269713 -0.014140548537961784 -0.015166437745307631 -0.010920980639305373 0.0055372056413810246 -0.012358955789716916 0.0021667932928116753 -0.014568849116385722 -0.014595876380126447 -0.0034849103918295943 -0.0082213555179597563 -0.011541445392786146
leaf_count=38 56 400 2241 80 1634 42 28 365 44 1709 113 1133 73 486 350 140 153 131 70 124 40 36 97 20 46 191 36 35 89
internal_value=0 0.209993 -0.0835399 0.247475 0.665201 -0.466674 0.753504 -0.744312 -0.464911 -0.530724 -0.250445 0.800249 0.360524 0.123202 -0.691753 -0.471105 -1.12869 -0.827411 -0.47759 -1.09678 -0.215311 1.24861 -1.33974 -0.98524 -1.05367 -1.30742 -0.955355 -1.31234 -1.43236
internal_count=10000 7764 4705 2518 3059 2187 2841 2236 1276 2109 1005 2767 2314 542 463 218 960 389 223 204 180 78 571 117 74 271 80 166 454
shrinkage=0.01


Tree=36
num_leaves=30
num_cat=0
split_feature=4 16 10 13 13 14 17 10 10 5 10 13 8 4 8 10 1 13 8 16 12 31 10 9 21 5 8 8 5
split_gain=375.723 250.876 126.874 111.223 103.994 73.0467 57.5362 48.214 39.4059 38.1713 35.4976 34.304 33.8375 29.9184 28.9753 21.6508 18.6655 18.5952 10.6541 13.4454 7.3088 6.98377 6.34148 4.57865 3.87492 4.29276 3.74052 0.189777 0.0114312
threshold=5.9994837478980498 60.00255738676865 62.500000000000007 262.01942669912995 178.01813129185359 0.99999496345779681 35.633945499487503 64.500000000000014 55.88319866925486 6.3976135644702241 49.906728644920513 155.50000000000003 67509.099234028094 6.9042708809498352 40010.675327961515 51.991224151956537 1.9971997385625153 178.01813129185359 98064.88332205468 54.579871746871952 15.713612280966345 260500.00000000003 64.500000000000014 1.9996182232637003 5039.9450000000006 7.1000000000000005 69998.000000000015 92971.455487749234 7.1000000000000005
decision_type=2 2 2 2 2 2 2 2 2 2 2 2 2 2 2 2 2 2 2 2 2 2 2 2 2 2 2 2 2
left_child=1 2 4 8 14 -6 9 12 11 10 17 -3 -5 15 -1 16 -8 -2 23 -20 -17 -10 -4 -11 25 -15 -12 -24 -26
right_child=6 3 22 7 5 -7 13 -9 21 18 26 -13 -14 24 -16 20 -18 -19 19 -21 -22 -23 27 -25 28 -27 -28 -29 -30
leaf_value=-0.0070149404505966892 -0.010820075505452749 -0.012336078262522584 -0.0046025676688062215 -0.0024270868642399805 0.0081074191941283413 0.0009295794673170912 0.0043508546189638536 -0.015430117528826802 -0.01429096563026663 -0.011641672371660524 -0.014685722908646838 -0.0034129276584168571 0.0050291611869958423 -0.00087590566928534867 0.001332458382986314 0.00063942545699086171 -0.01193034629778315 -0.0007791263836700843 -0.0045946530462378753 -0.013479082237821308 -0.013951740234695276 -0.0018597056144026556 -0.015503727084547154 -0.014927788983445668 -0.016426792804995684 -0.014111461550378486 -0.0089605559636166086 -0.013295407643900633 -0.015796105134097013
leaf_count=234 92 216 28 348 3224 693 314 67 249 421 139 1141 817 20 593 20 32 400 163 126 49 20 114 316 24 21 74 20 25
internal_value=0 0.208044 0.485423 -0.26597 0.543745 0.68164 -0.738215 0.188314 -0.61356 -0.916687 -0.555835 -0.476445 0.279522 -0.138891 -0.103007 0.0859463 0.287928 -0.264739 -1.1719 -0.841169 -0.963631 -1.33376 -1.32184 -1.30459 -1.21698 -0.755071 -1.26604 -1.51744 -1.61084
internal_count=10000 7764 4906 2858 4744 3917 2236 1232 1626 1731 705 1357 1165 505 827 415 346 492 1026 289 69 269 162 737 90 41 213 134 49
shrinkage=0.01


Tree=37
num_leaves=30
num_cat=0
split_feature=4 16 13 10 17 27 10 10 2 13 7 4 8 16 0 32 4 8 10 10 30 9 10 16 8 10 23 8 24
split_gain=368.816 247.541 142.424 91.5288 73.1337 57.7773 56.744 56.7117 66.9602 50.8675 38.4984 37.8587 36.0311 27.2017 27.0121 20.2597 16.7672 16.5908 11.8107 9.37638 7.86253 7.09407 7.45432 10.7409 4.92207 4.18394 0.287623 0.427776 0.212739
threshold=5.9994837478980498 43.711715900517582 238.03275290039829 59.953228466955757 13.036983309231823 0.11016934083033732 60.251789280635244 49.906728644920513 8.1948082500273838 155.50000000000003 1.999296364927369 5.0012759690920019 83002.000000000015 31.300368753204925 28019.35596699519 40909.260078085448 6.9042708809498352 29990.000000000004 64.500000000000014 43.939008514016898 49.982241755773195 1.9996182232637003 64.500000000000014 40.406791117378795 100853.14792138194 64.500000000000014 4787.0800000000008 63706.025375361503 424.03500000000003
decision_type=2 2 2 2 2 2 2 2 2 2 2 2 2 2 2 2 2 2 2 2 2 2 2 2 2 2 2 2 2
left_child=1 4 5 11 17 9 10 8 15 -3 -6 -4 13 -10 -14 24 -17 -1 -5 -19 -7 22 23 -9 -2 -8 27 -23 -24
right_child=7 2 3 18 6 20 25 21 12 -11 -12 -13 14 -15 -16 16 -18 19 -20 -21 -22 26 28 -25 -26 -27 -28 -29 -30
leaf_value=-0.016848522924941978 -0.014057584997699242 -0.01184162150790379 0.0030749401544243244 -0.0049325867770854672 0.009878060764910622 0.018257601660596461 -0.0043968250857560221 -0.0036260667859684933 0.0017195460961419895 -0.003749322692228209 0.0050271108647627002 0.017839248574256859 0.0054558342844823193 -0.0081541664997330943 -0.013694905790489282 -0.0028217921675301738 -0.011709446633943783 0.00027839458244115022 -0.014998603388477843 -0.010817945073366839 0.0054744584441313643 -0.015612607894385649 -0.013398610957304971 -0.012362456003397028 -0.0084806729367425983 -0.014399920226413301 -0.015926938010690398 -0.011806161107386469 -0.01576482337009499
leaf_count=38 330 400 2241 80 1634 42 28 95 168 1709 1133 73 304 343 33 222 148 140 124 40 36 35 20 155 83 46 185 20 95
internal_value=0 0.206132 -0.0830907 0.242634 0.655062 -0.460197 0.742335 -0.7321 -0.537713 -0.52359 0.788278 0.3536 -0.150085 -0.488066 0.358695 -0.974502 -0.630315 -0.466738 -1.08319 -0.21414 1.23587 -1.27541 -1.09518 -0.898037 -1.29105 -1.03969 -1.55358 -1.4214 -1.53554
internal_count=10000 7764 4705 2518 3059 2187 2841 2236 1631 2109 2767 2314 848 511 337 783 370 218 204 180 78 605 365 250 413 74 240 55 115
shrinkage=0.01


Tree=38
num_leaves=30
num_cat=0
split_feature=4 16 13 10 4 17 17 10 5 14 10 4 19 13 21 8 1 8 10 12 8 16 8 10 2 21 5 8 12
split_gain=362.044 243.452 150.94 137.081 73.3838 59.6887 56.3044 43.6583 37.2875 36.3311 34.4091 29.1047 23.9119 23.8142 21.2955 18.4045 15.8076 15.6327 13.4677 13.1887 10.4394 13.2744 6.09637 4.75137 4.53716 3.84661 4.24769 3.71683 0.210165
threshold=5.9994837478980498 39.503329918469689 181.01325048453552 64.500000000000014 5.0012759690920019 13.036983309231823 35.633945499487503 60.251789280635244 6.3976135644702241 0.99999496345779681 49.906728644920513 6.9042708809498352 1490.2127842045256 155.50000000000003 7827.9549075156865 51727.491267870304 1.9971997385625153 29990.000000000004 43.939008514016898 13.776555335083055 98064.88332205468 54.579871746871952 104986.08879780488 64.500000000000014 7.9050000000000011 5039.9450000000006 7.1000000000000005 69998.000000000015 7.920392770935476
decision_type=2 2 2 2 2 2 2 2 2 2 2 2 2 2 2 2 2 2 2 2 2 2 2 2 2 2 2 2 2
left_child=1 5 12 4 -4 17 8 9 10 -7 15 14 22 -14 16 -2 -8 -1 -19 -16 24 -22 -3 -9 -10 26 -13 -12 -5
right_child=6 2 3 28 -6 7 11 23 20 -11 27 25 13 -15 19 -17 -18 18 -20 -21 21 -23 -24 -25 -26 -27 -28 -29 -30
leaf_value=-0.017727327607525576 -0.0088885538936539273 -0.0143309747286051 0.001468872002323965 -0.01316032582203887 0.017904751482742495 0.0095095429480641768 0.0054824260100602351 -0.0025534848958407492 -0.014260696883893876 0.0029771596922347587 -0.014512422066323413 -0.00074756443027297853 -0.010110065867986739 -0.0025706283820511821 0.005333017100301928 -0.00019635276145062275 -0.01087360767170407 0.0018225355866955729 -0.012192620119395954 -0.0095854023099308482 -0.0044913440542232981 -0.013334703179159626 -0.0033283010059493574 -0.01409133377112551 -0.010971965979857071 -0.015937307596013521 -0.01394138452524399 -0.0087896180031033708 -0.015418537191209336
leaf_count=29 137 226 3871 20 114 1961 257 25 435 416 139 20 316 378 32 355 27 116 37 99 163 126 23 37 302 49 21 74 195
internal_value=0 0.204225 -0.0498708 0.112449 0.19341 0.707152 -0.726071 0.791174 -0.903109 0.834163 -0.546247 -0.132762 -0.784597 -0.593261 0.0886919 -0.260157 0.396433 -0.403822 -0.149821 -0.58964 -1.1562 -0.828433 -1.3303 -0.91714 -1.28806 -1.19961 -0.738709 -1.24835 -1.5209
internal_count=10000 7764 5143 4200 3985 2621 2236 2439 1731 2377 705 505 943 694 415 492 284 182 153 131 1026 289 249 62 737 90 41 213 215
shrinkage=0.01


Tree=39
num_leaves=30
num_cat=0
split_feature=4 16 10 13 17 14 10 2 10 10 9 8 8 13 16 0 16 2 9 10 16 31 10 8 23 8 24 10 10
split_gain=355.399 240.146 120.868 106.777 100.959 57.3499 55.4923 65.0706 45.9333 38.3474 35.3475 35.1218 33.1451 32.7856 26.6518 26.4399 20.1211 16.8224 7.03764 7.38574 10.5807 6.86312 6.18322 4.1687 0.284528 0.42103 0.212463 0.194429 0.0365834
threshold=5.9994837478980498 60.00255738676865 62.500000000000007 262.01942669912995 20.00625084633533 0.99999496345779681 49.906728644920513 8.1948082500273838 64.500000000000014 55.88319866925486 1.9996182232637003 83002.000000000015 67509.099234028094 189.018913549492 31.300368753204925 28019.35596699519 37.700305707479885 6.6500000000000012 1.9996182232637003 64.500000000000014 40.406791117378795 260500.00000000003 64.500000000000014 179590.26959117645 4787.0800000000008 63706.025375361503 424.03500000000003 95.500000000000014 53.862062374365223
decision_type=2 2 2 2 2 2 2 2 2 2 2 2 2 2 2 2 2 2 2 2 2 2 2 2 2 2 2 2 2
left_child=1 2 4 9 10 -6 7 16 12 13 -1 14 -5 -3 -9 -13 17 -2 19 20 -8 -11 -4 -18 25 -20 -21 -24 -26
right_child=6 3 22 8 5 -7 18 11 -10 21 -12 15 -14 -15 -16 -17 23 -19 24 26 -22 -23 27 -25 28 -27 -28 -29 -30
